<?xml version="1.0"?>
<opencv_storage>
<opencv_ml_svm>
  <format>3</format>
  <svmType>C_SVC</svmType>
  <kernel>
    <type>LINEAR</type></kernel>
  <C>1.</C>
  <term_criteria><epsilon>1.1920928955078125e-07</epsilon>
    <iterations>1000</iterations></term_criteria>
  <var_count>1764</var_count>
  <class_count>2</class_count>
  <class_labels type_id="opencv-matrix">
    <rows>2</rows>
    <cols>1</cols>
    <dt>i</dt>
    <data>
      -1 1</data></class_labels>
  <sv_total>1</sv_total>
  <support_vectors>
    <_>
      -4.62287519e+28 -5.03041036e-02 -4.62663136e+28 1.32168218e-01
      -4.63038706e+28 1.92313358e-01 -4.63414276e+28 -1.05793506e-01
      -4.63789846e+28 -1.81668505e-01 -4.64165463e+28 1.67000279e-01
      -4.64541033e+28 2.40476757e-01 -4.64916602e+28 1.02948062e-01
      -4.65292172e+28 -1.63014561e-01 -4.65667789e+28 -6.26560822e-02
      -4.66043359e+28 2.41111904e-01 -4.66418929e+28 2.30314791e-01
      -4.66794499e+28 -2.01017141e-01 -4.67170116e+28 -2.83909112e-01
      -4.67545686e+28 5.92005327e-02 -4.67921255e+28 2.10250661e-01
      -4.68296825e+28 -2.36061022e-01 -4.68672442e+28 -2.39470959e-01
      -4.69048012e+28 -7.62925437e-03 -4.69423582e+28 1.74050122e-01
      -4.69799152e+28 4.12250236e-02 -4.70174769e+28 -1.37874901e-01
      -4.70550338e+28 5.90377599e-02 -4.70925908e+28 1.59005225e-01
      -4.71301478e+28 8.24513957e-02 -4.71677095e+28 1.34777045e-02
      -4.72052665e+28 -4.99280579e-02 -4.72428235e+28 4.72521260e-02
      -4.72803852e+28 9.01588202e-02 -4.73179422e+28 -6.25227718e-03
      -4.73554991e+28 -2.35525370e-01 -4.73930561e+28 5.73622668e-03
      -4.74306178e+28 2.54681800e-03 -4.74681748e+28 1.59504488e-01
      -4.75057318e+28 -5.04958369e-02 -4.75432888e+28 1.39692336e-01
      -4.75808505e+28 1.38622880e-01 -4.76184074e+28 -7.28301480e-02
      -4.76559644e+28 7.78979436e-02 -4.76935214e+28 1.00571297e-01
      -4.77310831e+28 1.52798668e-01 -4.77686401e+28 -1.88205376e-01
      -4.78061971e+28 4.14913222e-02 -4.78437540e+28 -1.08146764e-01
      -4.78813158e+28 1.70487955e-01 -4.79188727e+28 1.00695409e-01
      -4.79564297e+28 -6.08623251e-02 -4.79939867e+28 7.11109936e-02
      -4.80315484e+28 7.29072616e-02 -4.80691054e+28 1.33673497e-03
      -4.81066624e+28 -9.11982730e-02 -4.81442193e+28 1.14220381e-01
      -4.81817810e+28 1.38596058e-01 -4.82193380e+28 4.84732017e-02
      -4.82568950e+28 3.18382792e-02 -4.82944520e+28 -2.89775226e-02
      -4.83320137e+28 1.61184400e-01 -4.83695707e+28 1.50726974e-01
      -4.84071276e+28 -1.16209477e-01 -4.84446846e+28 -8.74325633e-02
      -4.84822463e+28 1.65946200e-01 -4.85198033e+28 2.08333150e-01
      -4.85573603e+28 6.77451119e-02 -4.85949173e+28 -1.13137238e-01
      -4.86324790e+28 -1.37469858e-01 -4.86700360e+28 1.82589337e-01
      -4.87075929e+28 1.82728261e-01 -4.87451499e+28 -1.56365886e-01
      -4.87827116e+28 -1.20374851e-01 -4.88202686e+28 1.57713830e-01
      -4.88578256e+28 1.81517139e-01 -4.88953826e+28 -1.48750961e-01
      -4.89329443e+28 -1.04963265e-01 -4.89705012e+28 9.48937461e-02
      -4.90080582e+28 1.08423263e-01 -4.90456152e+28 -8.66533220e-02
      -4.90831769e+28 6.21764883e-02 -4.91207339e+28 3.16187330e-02
      -4.91582909e+28 3.28635518e-03 -4.91958479e+28 5.76137379e-02
      -4.92334096e+28 -2.74949688e-02 -4.92709665e+28 -1.10791229e-01
      -4.93085235e+28 -9.84547734e-02 -4.93460805e+28 1.41208172e-01
      -4.93836422e+28 7.78268203e-02 -4.94211992e+28 7.23880604e-02
      -4.94587562e+28 -1.53014392e-01 -4.94963131e+28 2.02999234e-01
      -4.95338748e+28 1.82722881e-01 -4.95714318e+28 1.94379807e-01
      -4.96089888e+28 -2.38380417e-01 -4.96465505e+28 1.58345550e-02
      -4.96841075e+28 3.99555974e-02 -4.97216645e+28 6.66571409e-02
      -4.97592215e+28 -1.39559239e-01 -4.97967832e+28 -2.16280580e-01
      -4.98343401e+28 2.33135864e-01 -4.98718971e+28 -5.94782569e-02
      -4.99094541e+28 1.03317991e-01 -4.99470158e+28 -2.32376069e-01
      -4.99845728e+28 -5.84741822e-04 -5.00221298e+28 2.74198145e-01
      -5.00596867e+28 -2.12293267e-01 -5.00972484e+28 -2.50363529e-01
      -5.01348054e+28 -1.36225224e-01 -5.01723624e+28 2.85582334e-01
      -5.02099194e+28 7.48757049e-02 -5.02474811e+28 9.43845063e-02
      -5.02850381e+28 -1.71262827e-02 -5.03225951e+28 2.58903742e-01
      -5.03601520e+28 1.26897618e-01 -5.03977137e+28 7.29341209e-02
      -5.04352707e+28 -2.75344044e-01 -5.04728277e+28 -5.08652348e-03
      -5.05103847e+28 1.37654364e-01 -5.05479464e+28 1.67534873e-01
      -5.05855034e+28 -4.13275473e-02 -5.06230603e+28 -2.81566232e-01
      -5.06606173e+28 9.96322632e-02 -5.06981790e+28 1.84608772e-01
      -5.07357360e+28 1.81455627e-01 -5.07732930e+28 -2.11321443e-01
      -5.08108500e+28 -3.44930124e-03 -5.08484117e+28 2.26595610e-01
      -5.08859687e+28 2.52726942e-01 -5.09235256e+28 -5.10119647e-02
      -5.09610826e+28 7.94776157e-02 -5.09986443e+28 1.73681080e-01
      -5.10362013e+28 1.93035260e-01 -5.10737583e+28 -2.50852630e-02
      -5.11113153e+28 -2.61242032e-01 -5.11488770e+28 -4.34059091e-03
      -5.11864339e+28 2.55643487e-01 -5.12239909e+28 8.60514119e-02
      -5.12615479e+28 -2.26862147e-01 -5.12991096e+28 -1.68744907e-01
      -5.13366666e+28 2.51778036e-01 -5.13742236e+28 2.39467591e-01
      -5.14117805e+28 1.17180809e-01 -5.14493422e+28 -8.84589180e-02
      -5.14868992e+28 4.35448363e-02 -5.15244562e+28 2.48930693e-01
      -5.15620132e+28 1.02859952e-01 -5.15995749e+28 -1.61896989e-01
      -5.16371319e+28 1.15841351e-01 -5.16746889e+28 2.24657774e-01
      -5.17122458e+28 8.39937851e-02 -5.17498075e+28 -2.28264570e-01
      -5.17873645e+28 -1.23252552e-02 -5.18249215e+28 -3.72385303e-03
      -5.18624785e+28 1.84244186e-01 -5.19000402e+28 1.46844834e-01
      -5.19375972e+28 -1.53806418e-01 -5.19751541e+28 -1.79223835e-01
      -5.20127158e+28 1.31549016e-01 -5.20502728e+28 1.75039694e-01
      -5.20878298e+28 1.63334325e-01 -5.21253868e+28 -9.91006494e-02
      -5.21629485e+28 4.38564532e-02 -5.22005055e+28 9.17583704e-02
      -5.22380625e+28 8.64917785e-03 -5.22756194e+28 2.16343254e-01
      -5.23131811e+28 5.83931692e-02 -5.23507381e+28 -2.69790649e-01
      -5.23882951e+28 1.49644852e-01 -5.24258521e+28 2.20725775e-01
      -5.24634138e+28 -1.57190621e-01 -5.25009708e+28 -9.26034153e-02
      -5.25385277e+28 1.65169254e-01 -5.25760847e+28 2.07477167e-01
      -5.26136464e+28 -3.14675197e-02 -5.26512034e+28 1.49391711e-01
      -5.26887604e+28 1.28638268e-01 -5.27263174e+28 2.68243998e-02
      -5.27638791e+28 1.87077627e-01 -5.28014361e+28 -2.35214338e-01
      -5.28389930e+28 -2.67660506e-02 -5.28765500e+28 1.13343559e-01
      -5.29141117e+28 8.48461464e-02 -5.29516687e+28 -6.42110454e-03
      -5.29892257e+28 -2.75435328e-01 -5.30267827e+28 -5.08391187e-02
      -5.30643444e+28 8.50281715e-02 -5.31019013e+28 1.50948748e-01
      -5.31394583e+28 -2.06876814e-01 -5.31770153e+28 -1.73272297e-01
      -5.32145770e+28 2.43457258e-01 -5.32521340e+28 8.60414281e-02
      -5.32896910e+28 -2.06892237e-01 -5.33272479e+28 6.66337758e-02
      -5.33648097e+28 2.16158882e-01 -5.34023666e+28 8.54629055e-02
      -5.34399236e+28 1.29157454e-01 -5.34774806e+28 -1.92693442e-01
      -5.35150423e+28 -1.82751998e-01 -5.35525993e+28 1.86717540e-01
      -5.35901563e+28 2.37640455e-01 -5.36277132e+28 2.21431017e-01
      -5.36652749e+28 -4.67419326e-02 -5.37028319e+28 -4.11217064e-02
      -5.37403889e+28 2.69536693e-02 -5.37779459e+28 3.27520482e-02
      -5.38155076e+28 7.67398626e-02 -5.38530646e+28 -1.29559919e-01
      -5.38906215e+28 1.47335023e-01 -5.39281785e+28 2.13667437e-01
      -5.39657402e+28 1.16083026e-01 -5.40032972e+28 -2.83974230e-01
      -5.40408542e+28 -2.23208740e-02 -5.40784112e+28 7.83732384e-02
      -5.41159729e+28 3.94669883e-02 -5.41535299e+28 7.18956441e-02
      -5.41910868e+28 -7.13056326e-02 -5.42286438e+28 1.40912130e-01
      -5.42662055e+28 -9.99923721e-02 -5.43037625e+28 1.10540830e-01
      -5.43413195e+28 4.43008877e-02 -5.43788812e+28 -1.62540004e-02
      -5.44164382e+28 1.79094002e-01 -5.44539951e+28 -1.72263339e-01
      -5.44915521e+28 -1.88267633e-01 -5.45291138e+28 -9.74012911e-03
      -5.45666708e+28 1.97288975e-01 -5.46042278e+28 -3.01215276e-02
      -5.46417848e+28 1.07356451e-01 -5.46793465e+28 5.17485738e-02
      -5.47169035e+28 -6.23316914e-02 -5.47544604e+28 1.95294321e-01
      -5.47920174e+28 -4.11325581e-02 -5.48295791e+28 3.43756117e-02
      -5.48671361e+28 5.52022411e-03 -5.49046931e+28 1.95110459e-02
      -5.49422501e+28 1.35392085e-01 -5.49798118e+28 -4.98594828e-02
      -5.50173687e+28 -9.09778327e-02 -5.50549257e+28 -1.61667774e-03
      -5.50924827e+28 1.70346037e-01 -5.51300444e+28 1.52044699e-01
      -5.51676014e+28 -1.63037270e-01 -5.52051584e+28 6.44967929e-02
      -5.52427154e+28 1.13611870e-01 -5.52802771e+28 7.15629309e-02
      -5.53178340e+28 1.40014626e-02 -5.53553910e+28 -5.92187084e-02
      -5.53929480e+28 6.77192882e-02 -5.54305097e+28 1.11680761e-01
      -5.54680667e+28 -4.54070866e-02 -5.55056237e+28 -2.04720691e-01
      -5.55431806e+28 1.26868337e-01 -5.55807423e+28 2.25698978e-01
      -5.56182993e+28 1.35889456e-01 -5.56558563e+28 1.18669771e-01
      -5.56934133e+28 -1.03642471e-01 -5.57309750e+28 2.17559770e-01
      -5.57685320e+28 1.04363970e-01 -5.58060890e+28 7.75804371e-02
      -5.58436459e+28 -1.52722493e-01 -5.58812076e+28 8.58787820e-03
      -5.59187646e+28 2.25611538e-01 -5.59563216e+28 1.47263125e-01
      -5.59938786e+28 6.70126155e-02 -5.60314403e+28 -4.19498645e-02
      -5.60689973e+28 2.16971636e-01 -5.61065542e+28 9.22596529e-02
      -5.61441112e+28 1.58131961e-02 -5.61816729e+28 -4.77783270e-02
      -5.62192299e+28 -2.33042359e-01 -5.62567869e+28 1.84925020e-01
      -5.62943439e+28 6.29152209e-02 -5.63319056e+28 8.82573426e-03
      -1.80358291e-01 -1.27241328e-01 3.86742577e-02 2.06205577e-01
      2.29572535e-01 1.20680183e-01 1.96548000e-01 2.37966552e-01
      2.06201866e-01 -5.83839938e-02 -1.14572681e-01 -1.02868967e-01
      8.30597952e-02 -2.77198255e-02 3.73851024e-02 1.21001564e-01
      2.24561408e-01 2.08241254e-01 -3.85250077e-02 -2.69530386e-01
      -2.96062320e-01 -1.31212875e-01 1.26346171e-01 -2.54852772e-02
      4.84472029e-02 1.51635170e-01 2.03435645e-01 2.89786197e-02
      -1.14831194e-01 -1.32913277e-01 -1.10143907e-01 -1.07066192e-01
      -1.13731645e-01 2.33330112e-02 1.82657436e-01 1.16573051e-01
      1.74141172e-02 5.94634004e-03 3.35373990e-02 3.43740582e-02
      -7.53205866e-02 -2.86874473e-02 1.30826710e-02 -5.45311011e-02
      -1.21829450e-01 -2.32580453e-01 -1.45095438e-01 -1.10411271e-01
      2.28973273e-02 8.92716274e-02 -6.39453977e-02 1.26853166e-02
      -3.54843885e-02 -3.97769269e-03 7.13870972e-02 -3.03807412e-03
      -1.57190099e-01 -9.20946822e-02 -1.73443601e-01 -1.62703935e-02
      7.39718676e-02 -5.68954051e-02 2.96668448e-02 -1.24513181e-02
      -1.78137019e-01 -1.85227603e-01 -1.86639428e-02 1.68957382e-01
      2.59308070e-01 2.50354737e-01 9.47505236e-02 -3.89274792e-03
      -6.16871892e-03 7.09935278e-02 1.24066934e-01 2.21580029e-01
      5.04071862e-02 3.41125280e-02 4.06608433e-02 6.23178184e-02
      1.97667480e-02 -1.79226726e-01 -1.15738891e-01 -2.29889825e-02
      9.04193148e-03 3.74489464e-02 5.48859239e-02 1.41937748e-01
      4.09380496e-02 4.39636782e-02 -1.28861457e-01 -3.99082899e-02
      -5.97103462e-02 -1.00639425e-01 1.52737334e-01 -6.78652674e-02
      -9.62945968e-02 -1.14168217e-02 1.36105223e-02 8.55378881e-02
      7.36783147e-02 6.56777620e-02 -2.09707953e-02 9.07845050e-02
      -3.81769203e-02 9.18899029e-02 1.05343685e-01 1.93182722e-01
      4.06054296e-02 2.04220228e-02 1.26980707e-01 1.46461174e-01
      1.09134965e-01 1.95751693e-02 1.75041437e-01 1.82236563e-02
      8.20987448e-02 -4.74384986e-02 -1.28891254e-02 2.06362493e-02
      7.42521882e-02 1.40144527e-01 -1.30270347e-01 -2.59351075e-01
      -4.25382182e-02 -2.51113921e-02 3.02025699e-03 1.71322137e-01
      2.24442288e-01 1.86956584e-01 1.40279815e-01 -1.58079848e-01
      -2.26158574e-01 -3.57019249e-03 5.19694621e-03 -5.01650348e-02
      -1.54715568e-01 -6.81949556e-02 -1.55218318e-02 -5.05217686e-02
      2.81098168e-02 -2.15535071e-02 -4.38923277e-02 -1.47301972e-01
      -1.86834618e-01 -7.28045106e-02 3.52637097e-02 1.44264281e-01
      1.20979629e-01 1.34234801e-01 3.89662012e-03 -1.19294887e-02
      -1.44151956e-01 3.39705534e-02 1.09515548e-01 1.80509999e-01
      2.11706728e-01 7.39860311e-02 -8.40444937e-02 4.87328954e-02
      1.04169786e-01 1.27680704e-01 6.18779697e-02 -9.40115675e-02
      -2.27664873e-01 -1.65481910e-01 2.56700497e-02 7.79650435e-02
      -5.02180010e-02 -5.75225316e-02 -1.94289535e-01 -1.73024133e-01
      -1.29928440e-01 1.47651210e-02 1.97182685e-01 1.70998067e-01
      1.73443407e-01 8.89636669e-03 4.91865724e-02 -8.67006779e-02
      -1.23693876e-01 -1.16549313e-01 1.43558040e-01 1.39289662e-01
      6.77255839e-02 4.44433801e-02 -2.38167401e-02 -1.93613142e-01
      -1.14116795e-01 -2.25549325e-01 -8.36734623e-02 5.37230372e-02
      1.04450785e-01 2.19029412e-01 1.79592043e-01 -1.34325489e-01
      -1.92894012e-01 -2.14577597e-02 -1.48987889e-01 8.34257379e-02
      8.83576125e-02 1.93389982e-01 2.11448610e-01 1.98066637e-01
      -2.03681335e-01 -2.10699335e-01 -1.78412259e-01 -1.18727960e-01
      5.24275079e-02 1.72118112e-01 2.48305768e-01 2.19097748e-01
      2.33139068e-01 5.89884147e-02 6.41072914e-03 4.69940118e-02
      -9.10518467e-02 -3.03635504e-02 1.16435453e-01 2.25407690e-01
      1.45778328e-01 1.44409716e-01 2.19806787e-02 2.14683507e-02
      1.56769782e-01 -8.86581615e-02 -2.12864667e-01 -2.13069752e-01
      -1.10173188e-01 3.82566117e-02 -2.46886839e-03 -3.73596661e-02
      -5.26049919e-02 -9.80947725e-03 -8.35766122e-02 -7.07470626e-02
      -2.70147319e-03 6.35604784e-02 1.93290830e-01 1.83680862e-01
      7.25457147e-02 3.12780589e-02 9.41850767e-02 -1.20162576e-01
      -3.29103805e-02 -1.31228819e-01 -1.51834581e-02 1.32434458e-01
      1.52331144e-01 1.57035813e-01 1.47498667e-01 2.28271917e-01
      2.14161098e-01 -3.36392596e-02 -1.34706095e-01 -1.32960975e-01
      3.99885140e-02 -6.16735928e-02 -4.97861505e-02 -1.44447405e-02
      1.63190201e-01 7.86472410e-02 7.23546520e-02 -1.88970268e-01
      -2.15204030e-01 -9.91880894e-03 3.42399999e-02 2.24682596e-02
      5.83949722e-02 2.06913754e-01 4.70051281e-02 6.85220435e-02
      -1.88257083e-01 -1.08631223e-01 1.33246124e-01 1.38418423e-02
      5.29567525e-02 1.28157316e-02 2.20650256e-01 1.42187178e-01
      1.86551899e-01 -6.28168434e-02 -9.46132764e-02 6.40886948e-02
      5.55186570e-02 -6.70441911e-02 -1.31421546e-02 1.06584109e-01
      5.73531613e-02 1.82671249e-01 8.25767741e-02 6.20021410e-02
      -4.62149978e-02 -1.20493442e-01 -1.83864571e-02 -2.05293857e-02
      7.36811161e-02 6.84791207e-02 -9.07775685e-02 -1.08723171e-01
      6.85073882e-02 9.89187807e-02 1.40591770e-01 1.30607143e-01
      -3.42321955e-02 3.24434228e-02 2.14512914e-01 1.49072856e-01
      -3.42140943e-02 8.20029993e-03 -6.25984883e-03 -8.03853720e-02
      1.01760281e-02 6.62257969e-02 -8.68956521e-02 -6.53299615e-02
      -8.60795528e-02 -3.72805782e-02 -6.98340777e-03 -8.27863663e-02
      -3.07578146e-02 7.20519647e-02 4.39637713e-02 -3.93715128e-02
      -1.40058128e-02 3.96768264e-02 -5.23640700e-02 4.98639159e-02
      1.14205949e-01 -4.28238548e-02 -2.44574901e-02 -1.22515380e-01
      -1.01212397e-01 5.64621575e-02 9.05866995e-02 2.05725022e-02
      3.65499929e-02 1.52982026e-01 -1.43140525e-01 7.98962936e-02
      7.68026486e-02 7.15811849e-02 -1.52480956e-02 -1.90280452e-02
      -4.71923128e-02 1.34706888e-02 -1.24709621e-01 -1.30016431e-01
      1.34917954e-02 -6.22851700e-02 -9.44537669e-02 -9.08633545e-02
      1.27647622e-02 -7.79079972e-03 -7.24555179e-02 -1.15675196e-01
      -6.42668679e-02 -6.20752908e-02 1.46605335e-02 8.76403823e-02
      1.84491038e-01 2.02049181e-01 2.11515933e-01 1.54257238e-01
      1.21498756e-01 -2.19444528e-01 -1.34534448e-01 -1.49100035e-01
      4.51469532e-04 1.10148201e-02 -7.15808049e-02 -4.38921377e-02
      1.03462540e-01 4.11962308e-02 -2.34298915e-01 -8.63536224e-02
      -2.09292937e-02 -5.00527471e-02 1.19540412e-02 9.54020768e-02
      1.96320027e-01 1.56660721e-01 -1.54400542e-01 -7.71882981e-02
      -1.14882000e-01 -1.63592294e-01 4.45053838e-02 9.56939831e-02
      1.31290987e-01 1.67613685e-01 1.43301010e-01 9.33700129e-02
      2.94663720e-02 1.07186764e-01 -5.68671376e-02 -9.11345892e-03
      4.53147143e-02 -7.76327476e-02 -6.91606626e-02 6.21675663e-02
      9.96980146e-02 -3.21985176e-03 -1.23936031e-02 8.39853659e-02
      -6.40976131e-02 -7.14586303e-02 -1.39357090e-01 7.16039240e-02
      1.25418976e-01 9.41418484e-02 3.71700190e-02 -1.82896256e-01
      -1.12779558e-01 -1.47680819e-01 -6.06763437e-02 -1.16561808e-01
      9.07362550e-02 4.48260754e-02 1.61907390e-01 2.97403857e-02
      7.05460906e-02 9.70401838e-02 9.66369435e-02 7.07184523e-02
      -3.41157727e-02 -3.40179466e-02 -7.06162155e-02 9.80968252e-02
      1.38956392e-02 -1.30706970e-02 -5.53561263e-02 -4.08857428e-02
      -1.34464148e-02 7.49387518e-02 1.03795886e-01 1.40101552e-01
      9.08086747e-02 8.81552920e-02 -1.69257507e-01 -1.82929605e-01
      -1.58742100e-01 5.98441139e-02 1.60457313e-01 1.03335209e-01
      1.68943867e-01 1.65516198e-01 4.84592095e-03 -8.99397209e-02
      -1.05893955e-01 -4.41438593e-02 2.84731146e-02 5.95123470e-02
      7.48570934e-02 -4.42598425e-02 -5.19830063e-02 -1.56103522e-01
      -1.61828995e-01 -2.01191112e-01 -4.84392140e-03 1.18991673e-01
      1.94856301e-01 1.99022129e-01 4.23503891e-02 -2.29659537e-03
      2.88902335e-02 1.14769325e-01 -1.72577381e-01 -1.64413989e-01
      -5.94493560e-02 -6.34989068e-02 -6.18128665e-02 4.55794632e-02
      1.18582301e-01 4.92930524e-02 6.04887456e-02 -2.06136871e-02
      -7.41506070e-02 -1.16200030e-01 -1.04601212e-01 -1.11963801e-01
      -8.42629671e-02 -4.30021286e-02 4.00332175e-02 1.73560351e-01
      1.25186533e-01 9.87076461e-02 9.13558900e-02 4.55890857e-02
      -9.85900015e-02 -1.14211597e-01 1.12370677e-01 1.29061222e-01
      1.42410636e-01 -4.20657024e-02 -1.36155248e-01 -1.11049294e-01
      -1.22198865e-01 -1.85400739e-01 -9.45187062e-02 -9.21552826e-04
      9.00678560e-02 1.37646928e-01 1.01691432e-01 7.58453310e-02
      -6.94633350e-02 -1.30940646e-01 -2.37723425e-01 -2.61823118e-01
      -1.99544765e-02 -1.10482000e-01 -2.41976809e-02 -3.47355977e-02
      3.13493870e-02 -2.27824170e-02 -7.99361806e-05 -1.44934446e-01
      -2.29680195e-01 -8.51113722e-02 4.72876579e-02 -1.73511431e-02
      -4.54552472e-02 -3.30995061e-02 -1.48573704e-02 9.61810052e-02
      1.90572485e-01 2.02225178e-01 1.67718396e-01 2.57285964e-02
      3.52804661e-02 2.55871508e-02 1.36364028e-01 -4.46674302e-02
      -3.62151116e-02 4.52624559e-02 5.81504740e-02 1.35454997e-01
      -7.83672463e-03 7.35639781e-03 1.49565507e-02 1.24193884e-01
      1.09653831e-01 -4.38170927e-03 -4.99840304e-02 -4.85631116e-02
      -6.28913715e-02 -4.52009030e-02 1.11106880e-01 1.15567572e-01
      -6.39066547e-02 2.42417417e-02 -8.87574553e-02 -6.32179156e-02
      -6.60812333e-02 -6.49675503e-02 1.01674050e-01 1.55055925e-01
      2.08213210e-01 1.14180058e-01 4.87261042e-02 1.58276379e-01
      8.38665888e-02 6.12111464e-02 1.37740985e-01 -9.21391994e-02
      3.41386534e-02 2.33000331e-03 6.18175976e-02 8.27232301e-02
      -1.41761843e-02 8.35962966e-02 -1.56125547e-02 -8.42503235e-02
      -2.17686772e-01 1.70488078e-02 1.38791382e-01 4.13595214e-02
      -3.53845917e-02 -6.12352639e-02 -1.86847150e-02 -1.11694008e-01
      -1.49239480e-01 -1.60147309e-01 -4.54411022e-02 1.05034582e-01
      1.40000403e-01 2.40141042e-02 1.24327920e-01 1.05893254e-01
      -1.07281320e-01 -6.67161047e-02 -5.19451760e-02 1.34608135e-01
      8.47475976e-02 1.94934890e-01 2.07767338e-01 1.96791083e-01
      1.79381952e-01 5.76527603e-02 -1.43960401e-01 -2.16416746e-01
      -3.41472588e-02 1.31998464e-01 1.36291012e-01 3.43236774e-02
      1.12078473e-01 1.58051044e-01 5.06254174e-02 -4.80608717e-02
      -2.30292663e-01 -2.44478583e-01 -1.98632926e-01 1.27095655e-01
      5.11065125e-03 3.00589968e-02 9.26452801e-02 1.27223313e-01
      -7.70172402e-02 -1.15293615e-01 -1.91022247e-01 -2.37061694e-01
      -1.71028208e-02 5.02193049e-02 1.20644733e-01 1.85483307e-01
      1.97188139e-01 -2.87784580e-02 -6.06150227e-03 3.21147367e-02
      1.20823592e-01 1.90079644e-01 1.23451889e-01 1.77060068e-01
      1.27176180e-01 1.99176252e-01 3.78468335e-02 -1.70247797e-02
      -6.34588227e-02 -5.42798787e-02 4.88384999e-03 -1.15551641e-02
      1.70961544e-02 1.04954049e-01 1.96220160e-01 1.31707191e-01
      -8.89081433e-02 -2.02897802e-01 -2.33115524e-01 -1.93572193e-01
      -5.27224541e-02 5.64156054e-03 2.82368455e-02 4.38444652e-02
      1.13246061e-01 3.92786711e-02 -1.21503824e-03 7.74010420e-02
      3.42668071e-02 -5.18589206e-02 -4.74733114e-02 -9.33658257e-02
      -1.03337117e-01 -1.46264490e-02 1.07875094e-01 1.30288512e-01
      7.08319545e-02 4.58243750e-02 4.94728833e-02 3.76050882e-02
      7.13723898e-02 1.28693372e-01 6.77941740e-02 1.56880810e-03
      2.41887681e-02 -4.79738452e-02 -4.98434752e-02 -1.53764337e-01
      9.65737924e-03 1.09208442e-01 4.88523431e-02 8.33321810e-02
      -9.44015458e-02 -1.16204448e-01 -3.52458023e-02 8.75664949e-02
      -1.31300166e-01 -1.38839528e-01 4.54298444e-02 2.39972584e-03
      -2.18612403e-01 -2.28863284e-01 -2.29216442e-01 -1.42793164e-01
      -6.63113296e-02 -1.44613281e-01 -1.51294410e-01 -7.14448467e-02
      -2.04439983e-01 -2.29603782e-01 -9.67977718e-02 -7.91148096e-02
      -1.62994549e-01 -1.79626361e-01 -2.28055239e-01 -2.25617304e-01
      -3.98057848e-02 -9.71284732e-02 -1.10856861e-01 -1.25295177e-01
      -7.55332634e-02 -1.50106475e-01 -1.25709519e-01 -1.98174432e-01
      -1.85973987e-01 -5.24691418e-02 -1.50070250e-01 -1.52532548e-01
      6.04797080e-02 6.40891641e-02 2.97989342e-02 3.07231247e-02
      9.04571936e-02 9.03262757e-03 -1.75512943e-03 3.35571682e-03
      5.47384694e-02 1.74235463e-01 1.50821075e-01 5.34030572e-02
      4.26998995e-02 1.18119255e-01 1.01230621e-01 2.80726440e-02
      1.13715269e-01 2.41702631e-01 1.66368231e-01 1.77473217e-01
      2.01491907e-01 1.01029761e-01 2.93879986e-01 6.44513220e-02
      6.38207346e-02 5.72440661e-02 1.20330215e-01 2.74600983e-01
      1.29895046e-01 1.88605890e-01 5.69211915e-02 2.49224782e-01
      1.31453320e-01 2.11833930e-03 2.03073233e-01 2.11995378e-01
      1.18361928e-01 -3.39753218e-02 -1.28856316e-01 -1.49601847e-01
      -1.11854844e-01 -1.21671461e-01 -2.07066581e-01 -2.15811953e-02
      1.22180805e-01 1.54188111e-01 -1.63672060e-01 -2.23289579e-01
      -2.20635965e-01 -9.68501568e-02 -1.89387321e-01 -1.71709776e-01
      -9.75260958e-02 9.30198804e-02 1.93441078e-01 1.45063445e-01
      -5.53741381e-02 -1.57587722e-01 6.17958531e-02 6.76047578e-02
      -1.51955277e-01 5.90388365e-02 7.30057284e-02 6.72578812e-02
      3.89041472e-03 -1.98541842e-02 -2.10668296e-02 -5.29460050e-03
      2.47869175e-02 -7.09592775e-02 1.49942022e-02 2.52780706e-01
      3.03516924e-01 -1.20920464e-01 -9.43049639e-02 -5.46091981e-02
      -7.60002956e-02 -1.37395099e-01 -8.31516534e-02 -4.63547222e-02
      2.90588200e-01 2.69923002e-01 -6.34562224e-02 -2.19711795e-01
      -3.46152335e-01 -1.00307547e-01 -8.41772854e-02 -7.91914612e-02
      -9.87607762e-02 2.35872418e-01 2.15002745e-01 -4.03515637e-01
      -4.26527947e-01 -4.21847939e-01 -1.08238935e-01 -5.67779243e-02
      -8.01448002e-02 -5.32058068e-02 2.56270617e-01 1.72779173e-01
      -1.03678599e-01 -5.04187271e-02 -2.09972709e-02 -5.56051917e-03
      -2.75813527e-02 -1.33856293e-02 -2.41032592e-03 3.05349886e-01
      2.76612967e-01 -2.20335677e-01 -9.46044698e-02 -6.53316975e-02
      -4.81436513e-02 -3.39253582e-02 -1.74082220e-02 -2.60399617e-02
      3.04787964e-01 2.25557446e-01 -2.84009159e-01 -3.08315933e-01
      -1.89396590e-01 -6.26947135e-02 -1.22243859e-01 -7.96742961e-02
      -2.38362700e-02 3.22308749e-01 2.05979422e-01 -2.70874023e-01
      -3.03929746e-01 -9.67035592e-02 -3.07413906e-01 -3.19777876e-01
      -1.94355890e-01 -1.44739702e-01 2.34113559e-01 4.67380174e-02
      -1.89298779e-01 -8.11427757e-02 -6.67311102e-02 -7.26076737e-02
      -4.35933135e-02 -2.81164143e-02 -2.35865917e-02 3.09192151e-01
      1.75787151e-01 -2.11278617e-01 -6.02385513e-02 -4.49117869e-02
      -4.46738712e-02 -3.35331447e-02 -2.82281190e-02 1.14409430e-02
      2.71825641e-01 6.58347905e-02 -2.77411133e-01 -1.20592959e-01
      -8.81686136e-02 -2.83958167e-01 -2.79631346e-01 -9.22581851e-02
      -1.13935165e-01 1.26803130e-01 6.72338083e-02 -2.59131819e-01
      -4.44531888e-02 -2.58220676e-02 -2.62558851e-02 -1.68195777e-02
      -4.12963182e-02 -1.68804079e-01 6.37826771e-02 6.33553341e-02
      -6.24216720e-02 -4.71028090e-02 -9.41523984e-02 -1.09940931e-01
      -7.93860406e-02 -2.73226518e-02 -1.74728446e-02 1.97313279e-01
      4.06307466e-02 -2.70572659e-02 -1.10549405e-01 -2.94314533e-01
      -2.76108772e-01 -1.35792539e-01 -1.75630189e-02 -6.65198779e-04
      2.81503856e-01 2.76216447e-01 -1.54381946e-01 -4.38581370e-02
      -3.97089608e-02 -8.08957517e-02 -6.03811890e-02 -4.94619906e-02
      -1.67565942e-01 4.14464511e-02 3.04065067e-02 -1.57044791e-02
      -1.11526929e-01 -1.35547802e-01 -1.97499290e-01 -1.66093946e-01
      -1.64235547e-01 -8.30003843e-02 3.63323353e-02 3.78716774e-02
      3.04511096e-03 -1.87001914e-01 -2.22163782e-01 -2.14497477e-01
      -4.68230695e-02 1.12811783e-02 1.17984079e-01 3.35441589e-01
      2.45174095e-01 -2.54758835e-01 -2.31522158e-01 -1.68319374e-01
      -9.89092663e-02 1.46359606e-02 7.81259313e-02 1.66175470e-01
      1.69712380e-01 -2.00997233e-01 -5.17162867e-02 -1.39593452e-01
      -2.05350205e-01 -1.19927153e-01 -1.09905891e-01 -1.51086599e-01
      1.93021931e-02 -1.26778558e-01 2.14057446e-01 -1.49410367e-01
      -1.70038700e-01 -1.84456613e-02 6.93637729e-02 1.50335386e-01
      -1.84252337e-02 1.57192051e-01 2.40428820e-01 -6.80412427e-02
      -1.95445225e-01 -5.93178906e-02 1.95943594e-01 2.90825039e-01
      2.54709721e-01 1.36441022e-01 3.74866985e-02 -1.58279151e-01
      -2.37840459e-01 -4.12289985e-02 8.22502151e-02 1.39961895e-02
      2.18182459e-01 2.88912226e-02 -3.37983146e-02 -2.41504326e-01
      -2.36236006e-01 -6.48282319e-02 5.63108623e-02 1.20558940e-01
      3.31136165e-03 2.11129680e-01 7.64591843e-02 1.12665072e-01
      8.53509232e-02 4.74482886e-02 -1.83819205e-01 3.89433578e-02
      1.21876009e-01 4.68681417e-02 2.39499956e-01 7.54319411e-03
      -2.03501299e-01 -2.61260867e-01 -2.38503814e-01 8.95294994e-02
      1.73766643e-01 7.39016756e-02 -8.36106092e-02 1.49755195e-01
      -5.35423635e-03 1.90863132e-01 2.08329886e-01 1.75265506e-01
      2.35626668e-01 4.57901098e-02 -2.73492411e-02 -2.13561341e-01
      -1.94905117e-01 -1.75094772e-02 -1.66747160e-02 1.27293169e-01
      1.89288765e-01 9.82093439e-02 -5.80878742e-02 -1.33843213e-01
      -1.54546633e-01 -1.56209037e-01 -7.35264793e-02 -2.39449907e-02
      2.34659053e-02 2.02138364e-01 2.28690252e-01 -4.28000872e-04
      -2.37024963e-01 -2.68873990e-01 -2.60796815e-01 -5.15972972e-02
      5.78894001e-03 1.31565571e-01 1.67374849e-01 1.73010141e-01
      5.95309585e-02 -5.94074205e-02 -2.34858960e-01 -8.79895464e-02
      1.26031041e-01 6.30446449e-02 5.00331633e-02 2.60209858e-01
      2.85815656e-01 -7.15736747e-02 -3.13441187e-01 -3.19916517e-01
      -7.98208192e-02 3.04458849e-02 -1.51100857e-02 3.00834049e-02
      3.03573281e-01 2.85656184e-01 -5.43430187e-02 -1.92827225e-01
      -3.25900167e-01 -2.30771452e-01 -5.33250496e-02 -7.65492618e-02
      -9.34675261e-02 2.13271916e-01 2.30894834e-01 -1.05870605e-01
      -1.90677091e-01 -1.68606251e-01 -1.02649070e-01 1.08545877e-01
      1.16795050e-02 4.45500538e-02 2.14473009e-01 1.53693870e-01
      -1.48561448e-01 -2.45515689e-01 -2.26931185e-01 -3.89996208e-02
      -3.75160947e-02 -1.15977153e-02 1.10692121e-02 3.10314506e-01
      2.95523405e-01 -1.25763357e-01 -2.23474190e-01 -2.08701760e-01
      -2.86651552e-01 -2.94557750e-01 -8.25180784e-02 -7.53238052e-02
      2.48217732e-01 2.71023333e-01 -6.82244822e-02 -2.75515258e-01
      -2.84763277e-01 -4.08690572e-02 -3.35211828e-02 -2.47560535e-02
      7.04857847e-03 3.29797804e-01 3.17247808e-01 -4.86608855e-02
      -2.74439752e-01 -2.84124762e-01 -1.56133741e-01 -1.11727893e-01
      -2.09905077e-02 -3.68233658e-02 2.31480852e-01 3.02931160e-01
      -6.06154986e-02 -3.61574851e-02 -7.79353380e-02 -2.38923743e-01
      -2.37695068e-01 -7.23965913e-02 -1.57270625e-01 1.03259213e-01
      1.68488771e-01 -8.05721954e-02 -6.84116222e-03 1.26340194e-03
      5.51551953e-03 -5.87849924e-03 -4.64922413e-02 -2.20135167e-01
      1.07507847e-01 1.15600288e-01 -7.30977207e-03 -1.15468815e-01
      -1.71133980e-01 -1.98919550e-01 -1.41442552e-01 -6.93437234e-02
      -1.31162301e-01 1.05961941e-01 2.32407227e-01 -1.59392983e-01
      -2.05609992e-01 -1.52974784e-01 -2.32333168e-01 -9.72581506e-02
      -6.35149777e-02 -2.09023133e-01 1.09258316e-01 1.34408042e-01
      -5.12603931e-02 -9.74921882e-03 9.46673099e-03 -6.79598935e-03
      8.43725819e-03 -1.42323449e-02 -7.36914277e-02 6.60517812e-02
      1.15226358e-01 -4.91882823e-02 -1.05419494e-02 -6.68604765e-03
      -1.13043757e-02 -3.14241424e-02 -6.70165643e-02 -5.02512753e-02
      5.19262105e-02 6.94935024e-02 -2.26711601e-01 -1.45374641e-01
      -5.52254803e-02 -7.13266432e-02 1.52394129e-02 5.51096350e-03
      -4.60288078e-02 1.12608880e-01 4.04326431e-02 -2.71706581e-01
      -2.68382635e-02 6.84278551e-04 -1.10165710e-02 -1.02897864e-02
      -1.15865611e-01 -2.30587006e-01 6.16652854e-02 6.14994280e-02
      3.09497640e-02 -9.15516634e-04 -6.15418842e-03 -2.12905724e-02
      -9.33182016e-02 -2.79433131e-01 -1.62729084e-01 6.33197278e-02
      8.43329206e-02 -3.97179238e-02 -3.78153957e-02 7.54232109e-02
      2.27861032e-01 1.31973505e-01 -1.68748260e-01 -1.70597881e-01
      2.18107700e-01 -1.50253065e-02 -1.08892329e-01 1.15846088e-02
      1.31839976e-01 2.75852084e-01 1.64909214e-01 -2.78929025e-01
      -2.97223479e-01 -2.16808140e-01 -2.43106317e-02 5.39074428e-02
      3.02022044e-02 2.13120326e-01 2.86829501e-01 7.58136660e-02
      -2.95206130e-01 -2.53418475e-01 1.95499718e-01 3.27296369e-02
      -1.25884384e-01 -9.55962837e-02 1.78692102e-01 2.33732209e-01
      1.78001910e-01 -1.24635071e-01 -2.84908563e-01 -5.71611896e-02
      2.02329666e-03 2.72073597e-02 9.31399167e-02 3.85558754e-02</_></support_vectors>
  <uncompressed_sv_total>8</uncompressed_sv_total>
  <uncompressed_support_vectors>
    <_>
      4.26643655e+31 4.58252624e-41 4.26990278e+31 4.58252624e-41
      4.27336902e+31 4.58252624e-41 4.27683525e+31 4.58252624e-41
      4.28030148e+31 4.58252624e-41 4.28376771e+31 4.58252624e-41
      4.28723394e+31 4.58252624e-41 4.29070018e+31 4.58252624e-41
      4.29416641e+31 4.58252624e-41 4.29763264e+31 4.58252624e-41
      4.30109887e+31 4.58252624e-41 4.30456510e+31 4.58252624e-41
      4.30803134e+31 4.58252624e-41 4.31149757e+31 4.58252624e-41
      4.31496380e+31 4.58252624e-41 4.31843003e+31 4.58252624e-41
      4.32189627e+31 4.58252624e-41 4.32536250e+31 4.58252624e-41
      4.32882873e+31 4.58252624e-41 4.33229496e+31 4.58252624e-41
      4.33576119e+31 4.58252624e-41 4.33922743e+31 4.58252624e-41
      4.34269366e+31 4.58252624e-41 4.34615989e+31 4.58252624e-41
      4.34962612e+31 4.58252624e-41 4.35309235e+31 4.58252624e-41
      4.35655859e+31 4.58252624e-41 4.36002482e+31 4.58252624e-41
      4.36349105e+31 4.58252624e-41 4.36695728e+31 4.58252624e-41
      4.37042351e+31 4.58252624e-41 4.37388975e+31 4.58252624e-41
      4.37735598e+31 4.58252624e-41 4.38082221e+31 4.58252624e-41
      4.38428844e+31 4.58252624e-41 4.38775468e+31 4.58252624e-41
      4.39122091e+31 4.58252624e-41 4.39468714e+31 4.58252624e-41
      4.39815337e+31 4.58252624e-41 4.40161960e+31 4.58252624e-41
      4.40508584e+31 4.58252624e-41 4.40855207e+31 4.58252624e-41
      4.41201830e+31 4.58252624e-41 4.41548453e+31 4.58252624e-41
      4.41895076e+31 4.58252624e-41 4.42241700e+31 4.58252624e-41
      4.42588323e+31 4.58252624e-41 4.42934946e+31 4.58252624e-41
      4.43281569e+31 4.58252624e-41 4.43628192e+31 4.58252624e-41
      4.43974816e+31 4.58252624e-41 4.44321439e+31 4.58252624e-41
      4.44668062e+31 4.58252624e-41 4.45014685e+31 4.58252624e-41
      4.45361309e+31 4.58252624e-41 4.45707932e+31 4.58252624e-41
      4.46054555e+31 4.58252624e-41 4.46401178e+31 4.58252624e-41
      4.46747801e+31 4.58252624e-41 4.47094425e+31 4.58252624e-41
      4.47441048e+31 4.58252624e-41 4.47787671e+31 4.58252624e-41
      4.48134294e+31 4.58252624e-41 4.48480917e+31 4.58252624e-41
      4.48827541e+31 4.58252624e-41 4.49174164e+31 4.58252624e-41
      4.49520787e+31 4.58252624e-41 4.49867410e+31 4.58252624e-41
      4.50214033e+31 4.58252624e-41 4.50560657e+31 4.58252624e-41
      4.50907280e+31 4.58252624e-41 4.51253903e+31 4.58252624e-41
      4.51600526e+31 4.58252624e-41 4.51947150e+31 4.58252624e-41
      4.52293773e+31 4.58252624e-41 4.52640396e+31 4.58252624e-41
      4.52987019e+31 4.58252624e-41 4.53333642e+31 4.58252624e-41
      4.53680266e+31 4.58252624e-41 4.54026889e+31 4.58252624e-41
      4.54373512e+31 4.58252624e-41 4.54720135e+31 4.58252624e-41
      4.55066758e+31 4.58252624e-41 4.55413382e+31 4.58252624e-41
      4.55760005e+31 4.58252624e-41 4.56106628e+31 4.58252624e-41
      4.56453251e+31 4.58252624e-41 4.56799874e+31 4.58252624e-41
      4.57146498e+31 4.58252624e-41 4.57493121e+31 4.58252624e-41
      4.57839744e+31 4.58252624e-41 4.58186367e+31 4.58252624e-41
      4.58532991e+31 4.58252624e-41 4.58879614e+31 4.58252624e-41
      4.59226237e+31 4.58252624e-41 4.59572860e+31 4.58252624e-41
      4.59919483e+31 4.58252624e-41 4.60266107e+31 4.58252624e-41
      4.60612730e+31 4.58252624e-41 4.60959353e+31 4.58252624e-41
      4.61305976e+31 4.58252624e-41 4.61652599e+31 4.58252624e-41
      4.61999223e+31 4.58252624e-41 4.62345846e+31 4.58252624e-41
      4.62692469e+31 4.58252624e-41 4.63039092e+31 4.58252624e-41
      4.63385716e+31 4.58252624e-41 4.63732339e+31 4.58252624e-41
      4.64078962e+31 4.58252624e-41 4.64425585e+31 4.58252624e-41
      4.64772208e+31 4.58252624e-41 4.65118832e+31 4.58252624e-41
      4.65465455e+31 4.58252624e-41 4.65812078e+31 4.58252624e-41
      4.66158701e+31 4.58252624e-41 4.66505324e+31 4.58252624e-41
      4.66851948e+31 4.58252624e-41 4.67198571e+31 4.58252624e-41
      4.67545194e+31 4.58252624e-41 4.67891817e+31 4.58252624e-41
      4.68238440e+31 4.58252624e-41 4.68585064e+31 4.58252624e-41
      4.68931687e+31 4.58252624e-41 4.69278310e+31 4.58252624e-41
      4.69624933e+31 4.58252624e-41 4.69971557e+31 4.58252624e-41
      4.70318180e+31 4.58252624e-41 4.70664803e+31 4.58252624e-41
      4.71011426e+31 4.58252624e-41 4.71358049e+31 4.58252624e-41
      4.71704673e+31 4.58252624e-41 4.72051296e+31 4.58252624e-41
      4.72397919e+31 4.58252624e-41 4.72744542e+31 4.58252624e-41
      4.73091165e+31 4.58252624e-41 4.73437789e+31 4.58252624e-41
      4.73784412e+31 4.58252624e-41 4.74131035e+31 4.58252624e-41
      4.74477658e+31 4.58252624e-41 4.74824281e+31 4.58252624e-41
      4.75170905e+31 4.58252624e-41 4.75517528e+31 4.58252624e-41
      4.75864151e+31 4.58252624e-41 4.76210774e+31 4.58252624e-41
      4.76557398e+31 4.58252624e-41 4.76904021e+31 4.58252624e-41
      4.77250644e+31 4.58252624e-41 4.77597267e+31 4.58252624e-41
      4.77943890e+31 4.58252624e-41 4.78290514e+31 4.58252624e-41
      4.78637137e+31 4.58252624e-41 4.78983760e+31 4.58252624e-41
      4.79330383e+31 4.58252624e-41 4.79677006e+31 4.58252624e-41
      4.80023630e+31 4.58252624e-41 4.80370253e+31 4.58252624e-41
      4.80716876e+31 4.58252624e-41 4.81063499e+31 4.58252624e-41
      4.81410122e+31 4.58252624e-41 4.81756746e+31 4.58252624e-41
      4.82103369e+31 4.58252624e-41 4.82449992e+31 4.58252624e-41
      4.82796615e+31 4.58252624e-41 4.83143239e+31 4.58252624e-41
      4.83489862e+31 4.58252624e-41 4.83836485e+31 4.58252624e-41
      4.84183108e+31 4.58252624e-41 4.84529731e+31 4.58252624e-41
      4.84876355e+31 4.58252624e-41 4.85222978e+31 4.58252624e-41
      4.85569601e+31 4.58252624e-41 4.85916224e+31 4.58252624e-41
      4.86262847e+31 4.58252624e-41 4.86609471e+31 4.58252624e-41
      4.86956094e+31 4.58252624e-41 4.87302717e+31 4.58252624e-41
      4.87649340e+31 4.58252624e-41 4.87995963e+31 4.58252624e-41
      4.88342587e+31 4.58252624e-41 4.88689210e+31 4.58252624e-41
      4.89035833e+31 4.58252624e-41 4.89382456e+31 4.58252624e-41
      4.89729080e+31 4.58252624e-41 4.90075703e+31 4.58252624e-41
      4.90422326e+31 4.58252624e-41 4.90768949e+31 4.58252624e-41
      4.91115572e+31 4.58252624e-41 4.91462196e+31 4.58252624e-41
      4.91808819e+31 4.58252624e-41 4.92155442e+31 4.58252624e-41
      4.92502065e+31 4.58252624e-41 4.92848688e+31 4.58252624e-41
      4.93195312e+31 4.58252624e-41 4.93541935e+31 4.58252624e-41
      4.93888558e+31 4.58252624e-41 4.94235181e+31 4.58252624e-41
      4.94581804e+31 4.58252624e-41 4.94928428e+31 4.58252624e-41
      4.95275051e+31 4.58252624e-41 4.95621674e+31 4.58252624e-41
      4.95968297e+31 4.58252624e-41 4.96314921e+31 4.58252624e-41
      4.96661544e+31 4.58252624e-41 4.97008167e+31 4.58252624e-41
      4.97354790e+31 4.58252624e-41 4.97701413e+31 4.58252624e-41
      4.98048037e+31 4.58252624e-41 4.98394660e+31 4.58252624e-41
      4.98741283e+31 4.58252624e-41 4.99087906e+31 4.58252624e-41
      4.99434529e+31 4.58252624e-41 4.99781153e+31 4.58252624e-41
      5.00127776e+31 4.58252624e-41 5.00474399e+31 4.58252624e-41
      5.00821022e+31 4.58252624e-41 5.01167646e+31 4.58252624e-41
      5.01514269e+31 4.58252624e-41 5.01860892e+31 4.58252624e-41
      5.02207515e+31 4.58252624e-41 5.02554138e+31 4.58252624e-41
      5.02900762e+31 4.58252624e-41 5.03247385e+31 4.58252624e-41
      5.03594008e+31 4.58252624e-41 5.03940631e+31 4.58252624e-41
      5.04287254e+31 4.58252624e-41 5.04633878e+31 4.58252624e-41
      5.04980501e+31 4.58252624e-41 5.05327124e+31 4.58252624e-41
      5.05673747e+31 4.58252624e-41 5.06020370e+31 4.58252624e-41
      5.06366994e+31 4.58252624e-41 5.06713617e+31 4.58252624e-41
      5.07060240e+31 4.58252624e-41 5.07406863e+31 4.58252624e-41
      5.07753487e+31 4.58252624e-41 5.08100110e+31 4.58252624e-41
      5.08446733e+31 4.58252624e-41 5.08793356e+31 4.58252624e-41
      5.09139979e+31 4.58252624e-41 5.09486603e+31 4.58252624e-41
      5.09833226e+31 4.58252624e-41 5.10179849e+31 4.58252624e-41
      5.10526472e+31 4.58252624e-41 5.10873095e+31 4.58252624e-41
      5.11219719e+31 4.58252624e-41 5.11566342e+31 4.58252624e-41
      5.11912965e+31 4.58252624e-41 5.12259588e+31 4.58252624e-41
      5.12606211e+31 4.58252624e-41 5.12952835e+31 4.58252624e-41
      5.13299458e+31 4.58252624e-41 5.13646081e+31 4.58252624e-41
      5.13992704e+31 4.58252624e-41 5.14339328e+31 4.58252624e-41
      5.14685951e+31 4.58252624e-41 5.15032574e+31 4.58252624e-41
      5.15379197e+31 4.58252624e-41 5.15725820e+31 4.58252624e-41
      5.16072444e+31 4.58252624e-41 5.16419067e+31 4.58252624e-41
      5.16765690e+31 4.58252624e-41 5.17112313e+31 4.58252624e-41
      5.17458936e+31 4.58252624e-41 5.17805560e+31 4.58252624e-41
      5.18152183e+31 4.58252624e-41 5.18498806e+31 4.58252624e-41
      5.18845429e+31 4.58252624e-41 5.19192052e+31 4.58252624e-41
      5.19538676e+31 4.58252624e-41 5.19885299e+31 4.58252624e-41 0. 0.
      0. 0. 0. 0. 0. 0. 0. 0. 0. 0. 0. 0. 0. 0. 0. 0. 0. 0. 0. 0. 0. 0.
      0. 0. 0. 0. 0. 0. 0. 0. 0. 0. 0. 0. 0. 0. 0. 0. 0. 0. 0. 0. 0. 0.
      0. 0. 0. 0. 0. 0. 0. 0. 0. 0. 0. 0. 0. 0. 0. 0. 0. 0. 0. 0. 0. 0.
      0. 0. 0. 0. 0. 0. 0. 0. 0. 0. 0. 0. 0. 0. 0. 0. 0. 0. 0. 0. 0. 0.
      0. 0. 0. 0. 0. 0. 0. 0. 0. 0. 1.48543000e-01 1.65628001e-01
      2.30706006e-01 1.52495995e-01 1.53816998e-01 6.11292012e-02
      1.02872998e-01 5.42001985e-02 7.68615976e-02 7.90024996e-02
      9.84155014e-02 2.44478002e-01 2.44478002e-01 2.40250006e-01
      1.45494998e-01 9.76691991e-02 7.22355023e-02 7.32681975e-02
      1.25113994e-01 2.30180994e-01 2.44478002e-01 2.38923997e-01
      2.20958993e-01 1.13054998e-01 1.49988994e-01 7.63702989e-02
      9.05437991e-02 6.81200027e-02 1.88825995e-01 2.44478002e-01
      2.44478002e-01 2.44478002e-01 2.33028993e-01 1.33084998e-01
      9.37552005e-02 7.90088028e-02 6.63862973e-02 4.86386009e-02
      1.15810998e-01 1.38074994e-01 1.05327003e-01 1.12396002e-01
      4.56563011e-02 4.93693985e-02 6.47116974e-02 2.37189993e-01
      1.56002000e-01 1.02779001e-01 7.09552988e-02 1.45989001e-01
      1.29563004e-01 5.70546985e-02 1.01236001e-01 2.00554997e-01
      5.33903018e-02 2.48842999e-01 3.16991001e-01 2.59409010e-01
      1.26708999e-01 1.25755996e-01 7.89280012e-02 5.26125990e-02
      5.04429005e-02 3.16991001e-01 3.16991001e-01 3.16991001e-01
      2.09613994e-01 1.00311004e-01 5.89978993e-02 8.84239003e-02
      1.09571002e-01 2.87074000e-01 1.86077997e-01 1.20007001e-01
      3.55052985e-02 2.21756995e-02 4.70513999e-02 3.73756997e-02
      1.60125997e-02 4.00658995e-02 1.30199999e-01 2.97964007e-01
      2.62964010e-01 7.44509995e-02 7.52148032e-02 6.97998032e-02
      1.94265991e-02 2.08608992e-02 3.81025001e-02 1.13851003e-01
      3.38216990e-01 3.41793001e-01 2.36543000e-01 2.89884005e-02
      1.24287996e-02 1.64595004e-02 5.06425016e-02 1.06484003e-01
      2.12017998e-01 3.41793001e-01 3.41793001e-01 2.03151003e-01
      4.89692017e-02 9.54721961e-03 4.23729010e-02 1.29917994e-01
      1.97704002e-01 2.27374002e-01 2.41674006e-01 1.46144003e-01
      4.18406986e-02 3.08906008e-02 2.86212992e-02 2.92672007e-03
      1.49432998e-02 2.37025004e-02 1.21307001e-01 2.16765001e-01
      4.46921997e-02 1.65622998e-02 7.53219984e-03 2.17378009e-02
      4.22407985e-02 4.80334014e-02 6.47246018e-02 2.59359986e-01
      3.27688009e-01 3.27688009e-01 5.12875989e-02 3.99305001e-02
      9.43243969e-03 1.30391000e-02 6.82768971e-02 3.27250004e-01
      3.27688009e-01 3.27688009e-01 5.33435009e-02 8.34621955e-03
      1.21080000e-02 1.25879999e-02 3.76802012e-02 8.62414986e-02
      3.27688009e-01 3.27688009e-01 1.68566003e-01 6.70178011e-02
      7.75882006e-02 5.04112989e-02 5.97761013e-02 1.13176003e-01
      8.68536979e-02 9.08059031e-02 2.95935988e-01 1.37669995e-01
      1.28443003e-01 2.40961000e-01 1.54088005e-01 1.13582000e-01
      1.20829001e-01 3.41077000e-02 3.88150997e-02 1.27388000e-01
      2.95935988e-01 4.06217985e-02 1.87637992e-02 1.35577004e-02
      6.10276014e-02 1.23784997e-01 1.90908000e-01 2.95935988e-01
      2.95935988e-01 2.95935988e-01 4.97969016e-02 6.88636005e-02
      1.49537995e-01 1.71893999e-01 1.93753004e-01 1.21275000e-01
      2.55391002e-01 2.95935988e-01 1.52877003e-01 2.12293997e-01
      2.34810993e-01 2.22035006e-01 8.99600983e-02 6.05809018e-02
      5.76246995e-03 6.59900019e-03 5.57501987e-02 2.03839004e-01
      2.23105997e-01 2.34810993e-01 1.04105003e-01 2.66872998e-02
      3.22077004e-03 3.64993997e-02 2.34810993e-01 2.34810993e-01
      1.55070007e-01 1.12094998e-01 2.34810993e-01 2.34810993e-01
      1.83487996e-01 2.02960998e-01 1.74914002e-01 1.38411000e-01
      2.34810993e-01 1.21969998e-01 1.51710004e-01 2.34810993e-01
      1.53757006e-01 5.41714989e-02 1.00166999e-01 1.82092994e-01
      1.64122999e-01 1.54382005e-01 8.69769976e-02 7.32133016e-02
      4.45672013e-02 1.47288004e-02 2.11103000e-02 2.35319994e-02
      1.72141001e-01 3.17236990e-01 2.74704993e-01 1.46294003e-02
      1.71224996e-02 1.74260009e-02 1.44316005e-02 3.66934016e-02
      1.23258002e-01 3.17236990e-01 3.17236990e-01 9.73459035e-02
      1.01552002e-01 5.64135015e-02 6.70080036e-02 1.95409004e-02
      1.29567999e-02 6.95971996e-02 2.79583007e-01 3.17236990e-01
      1.87332004e-01 2.26291995e-02 4.11884021e-03 5.22902003e-03
      5.73009020e-03 4.28517982e-02 3.17236990e-01 3.17236990e-01
      3.17236990e-01 7.09512010e-02 7.55349025e-02 1.38491005e-01
      1.62469998e-01 8.86870995e-02 6.14725016e-02 4.36065011e-02
      2.65548006e-02 1.25249000e-02 2.57830992e-02 7.22488984e-02
      1.63264006e-01 2.92003989e-01 2.85201997e-01 1.19323000e-01
      7.55939037e-02 3.03517003e-02 2.14010999e-02 4.71263006e-02
      1.15979001e-01 1.69489995e-01 2.19130993e-01 1.61412001e-01
      9.64303985e-02 5.87009005e-02 2.24769991e-02 2.66676992e-02
      4.39344011e-02 1.77541003e-01 2.90654004e-01 4.52134013e-01
      4.52134013e-01 1.93120003e-01 7.73309991e-02 1.18102003e-02
      2.35932004e-02 7.83021003e-02 2.12501008e-02 1.71507001e-01
      3.04118007e-01 1.34968996e-01 4.71105985e-02 2.75225993e-02
      7.42266979e-03 5.63084986e-03 8.82986002e-03 1.25918001e-01
      3.04118007e-01 3.04118007e-01 1.04208000e-01 4.96162996e-02
      2.83048004e-02 2.78561004e-02 4.74287011e-02 8.44782963e-02
      4.17005010e-02 1.88080996e-01 3.04118007e-01 3.04118007e-01
      2.01094002e-01 5.86626008e-02 2.45125010e-03 5.12711005e-03
      9.16885957e-03 9.80866030e-02 2.63384014e-01 3.04118007e-01
      3.04118007e-01 2.49480993e-01 1.60022005e-01 4.41784002e-02
      6.28433004e-02 6.58254996e-02 1.07867002e-01 2.65008003e-01
      2.65008003e-01 7.21682012e-02 5.25678992e-02 4.90968004e-02
      5.74267991e-02 8.29218030e-02 9.24466997e-02 2.44109005e-01
      2.65008003e-01 2.65008003e-01 5.11320010e-02 5.40595017e-02
      8.24299008e-02 9.22852978e-02 1.16820000e-01 7.95411989e-02
      4.34786007e-02 1.47900000e-01 2.40845993e-01 1.60439998e-01
      2.19098002e-01 2.65008003e-01 1.37384996e-01 7.20942989e-02
      5.60822003e-02 8.76128003e-02 2.59005010e-01 2.65008003e-01
      1.03607997e-01 2.01646999e-01 2.65008003e-01 1.96815997e-01
      1.06224999e-01 7.54280016e-02 2.78066009e-01 2.78066009e-01
      6.55362979e-02 1.10585997e-02 2.57948004e-02 4.64738011e-02
      7.75469989e-02 2.78066009e-01 2.78066009e-01 1.45353004e-01
      2.99002007e-02 1.32184001e-02 6.28380999e-02 1.29326999e-01
      6.82253018e-02 1.32670999e-01 2.78066009e-01 2.78066009e-01
      1.68585002e-01 1.27242997e-01 6.06833994e-02 1.66838001e-02
      5.99559993e-02 1.25060007e-01 1.08227998e-01 1.73831999e-01
      1.67455003e-01 1.44464001e-01 5.86090013e-02 1.05830997e-01
      2.78066009e-01 2.78066009e-01 8.18914995e-02 1.09217003e-01
      2.78066009e-01 1.76158994e-01 9.04719979e-02 7.67213991e-03
      1.46546001e-02 1.23274997e-01 2.81747013e-01 1.35426000e-01
      1.82823002e-01 2.89741009e-01 2.06714004e-01 1.07106000e-01
      5.84662985e-03 1.85725000e-02 6.29561022e-02 1.56490996e-01
      1.34483993e-01 1.21716000e-01 1.52924001e-01 1.97118998e-01
      9.93867964e-02 1.11204997e-01 1.65211007e-01 2.89741009e-01
      2.89741009e-01 1.31677002e-01 1.34551004e-01 2.67760992e-01
      9.25536007e-02 9.27911997e-02 1.00309998e-01 1.12461001e-01
      1.90231994e-01 2.03160003e-01 2.20604002e-01 2.05394000e-01
      1.85112998e-01 1.14593998e-01 4.77458984e-02 1.26278000e-02
      4.08627987e-02 7.18830973e-02 9.26816985e-02 2.10098997e-01
      3.43961000e-01 1.46911994e-01 1.33871004e-01 3.62062007e-02
      2.56813001e-02 7.00235963e-02 3.76884006e-02 3.56198996e-02
      1.56302005e-01 3.43961000e-01 9.24891010e-02 6.43277019e-02
      2.88686007e-02 2.22456008e-02 2.96877995e-02 3.32945995e-02
      8.57760981e-02 3.25345993e-01 3.43961000e-01 2.69409001e-01
      9.56937000e-02 1.40893003e-02 1.98537000e-02 2.93191001e-02
      1.27526000e-02 6.36008009e-02 3.43961000e-01 3.43961000e-01
      2.20000997e-01 6.70413002e-02 7.03359023e-02 2.67210994e-02
      8.70082006e-02 3.46856005e-02 4.35786992e-02 1.47626996e-01
      3.29926014e-01 1.28438994e-01 1.42036006e-01 1.94223002e-02
      1.68525998e-03 1.29810004e-02 1.13167996e-02 1.66731000e-01
      3.29926014e-01 3.29926014e-01 1.16385996e-01 5.46992011e-02
      2.36064997e-02 3.02932002e-02 8.24624971e-02 5.97687997e-02
      1.87987998e-01 3.29926014e-01 3.29926014e-01 1.34354994e-01
      7.37444982e-02 1.10138003e-02 5.45042008e-03 2.59041991e-02
      9.93484035e-02 3.29926014e-01 3.29926014e-01 1.78654999e-01
      3.60240005e-02 1.87096000e-02 3.85163985e-02 6.82748035e-02
      9.25116017e-02 1.02921002e-01 5.80136999e-02 2.50714999e-02
      7.44184013e-03 7.45412987e-03 1.30591998e-02 4.66847010e-02
      7.32342005e-02 3.90796006e-01 3.90796006e-01 1.21746004e-01
      2.28987001e-02 9.75987967e-03 8.30196962e-03 2.09318008e-02
      1.84259005e-02 4.27243002e-02 1.19342998e-01 2.94075996e-01
      2.25978002e-01 6.35789037e-02 1.79915000e-02 3.85031011e-03
      6.05092011e-03 2.08193008e-02 1.07051000e-01 3.90796006e-01
      3.90796006e-01 3.90796006e-01 7.96988979e-02 4.54897992e-02
      2.23951992e-02 1.53665999e-02 1.83850992e-02 5.67147993e-02
      3.49516988e-01 3.49516988e-01 2.08757997e-01 3.49951982e-02
      1.33745996e-02 1.54342996e-02 1.69280004e-02 3.49645987e-02
      7.17310980e-02 2.10950002e-01 3.49516988e-01 2.03290999e-01
      1.18147001e-01 3.73490006e-02 4.40916009e-02 5.83529994e-02
      2.99689993e-02 7.91762993e-02 3.49516988e-01 3.49516988e-01
      2.05910996e-01 4.28843014e-02 5.28613999e-02 8.23782012e-02
      8.38776976e-02 1.53908998e-01 9.66283008e-02 8.99629965e-02
      1.74064994e-01 8.18824023e-02 3.78667004e-02 4.39254008e-02
      1.41021997e-01 2.33114004e-01 3.13176997e-02 3.56582999e-02
      5.44531010e-02 1.15918003e-01 1.62950993e-01 2.61373997e-01
      2.15745002e-01 1.08863004e-01 6.90883026e-02 2.61373997e-01
      2.34446991e-02 3.94639000e-02 6.44631982e-02 1.27550006e-01
      2.61373997e-01 2.61373997e-01 2.49757007e-01 2.61373997e-01
      1.72448993e-01 1.18371002e-01 5.19772992e-02 4.15257998e-02
      3.73057984e-02 1.23533003e-01 1.46144003e-01 1.62548006e-01
      1.77575007e-01 2.61373997e-01 5.44633009e-02 2.78607998e-02
      3.85821015e-02 4.31592017e-02 2.12189004e-01 2.49229997e-01
      2.59831995e-01 2.61373997e-01 3.02495003e-01 5.17988987e-02
      3.12507004e-02 1.94103997e-02 2.57319994e-02 8.19714963e-02
      7.50308037e-02 1.13032997e-01 3.02495003e-01 3.02495003e-01
      1.35594994e-01 2.08936006e-01 3.02495003e-01 1.83607996e-01
      3.97132002e-02 3.98719013e-02 6.38829023e-02 2.49289006e-01
      3.02495003e-01 2.86430009e-02 1.55076999e-02 3.28987986e-02
      4.20616008e-02 8.37803036e-02 8.63668993e-02 8.28457996e-02
      3.02495003e-01 3.02495003e-01 9.19271037e-02 9.04830992e-02
      1.34801000e-01 1.92732006e-01 9.78434980e-02 7.43855014e-02
      6.21636994e-02 2.12849006e-01 1.57456994e-01 1.54844999e-01
      2.16999993e-01 2.43885994e-01 2.43885994e-01 7.00704977e-02
      8.65632966e-02 1.22647002e-01 9.99941975e-02 7.40465000e-02
      9.79456007e-02 9.81806964e-02 1.63719997e-01 1.70380995e-01
      1.89671993e-01 2.04230994e-01 2.43885994e-01 1.19360000e-01
      1.25266999e-01 9.15110037e-02 9.56057981e-02 1.79223001e-01
      2.43885994e-01 1.40968993e-01 1.81667998e-01 1.84122995e-01
      9.37675983e-02 1.29124001e-01 8.47515017e-02 8.29027966e-02
      1.06748998e-01 1.76771000e-01 2.40084007e-01 2.25709006e-01
      2.43885994e-01 2.26984993e-01 4.14595008e-02 3.75030003e-02
      3.00338008e-02 4.15017009e-02 9.87453982e-02 2.61132002e-01
      2.61132002e-01 2.61132002e-01 1.21413998e-01 2.60009002e-02
      5.30775003e-02 1.61793008e-02 2.83144992e-02 1.02039002e-01
      2.61132002e-01 2.61132002e-01 2.13295996e-01 1.28704995e-01
      1.32551998e-01 9.56278965e-02 5.72717004e-02 6.54333979e-02
      9.86867025e-02 2.42789000e-01 2.11717993e-01 2.61132002e-01
      2.61132002e-01 6.86640963e-02 7.94033036e-02 2.33079009e-02
      7.01211989e-02 9.31138024e-02 2.61132002e-01 2.61132002e-01
      2.61132002e-01 1.87841997e-01 2.60368008e-02 5.27948998e-02
      4.34756018e-02 8.71509984e-02 2.26172999e-01 2.82768995e-01
      2.82768995e-01 1.16066001e-01 1.10719003e-01 2.23216992e-02
      2.75599994e-02 3.63105014e-02 1.04611002e-01 2.82768995e-01
      2.82768995e-01 9.17074010e-02 2.72665005e-02 1.58255007e-02
      3.86056006e-02 6.75911009e-02 7.49996006e-02 1.46108001e-01
      2.82768995e-01 2.82768995e-01 2.82768995e-01 2.15578005e-01
      1.12400003e-01 5.53244017e-02 5.37772998e-02 9.65287983e-02
      2.18340993e-01 2.82768995e-01 2.71295995e-01 1.03009000e-01
      5.44519015e-02 4.98926006e-02 2.22180993e-03 6.72947010e-03
      4.30844016e-02 2.36350998e-01 3.38057995e-01 7.27455020e-02
      1.02855004e-02 1.41045998e-03 1.95853994e-03 4.23922995e-03
      4.88784984e-02 2.85203010e-01 3.38057995e-01 3.38057995e-01
      1.59546003e-01 2.13925000e-02 8.00648984e-03 5.77958999e-03
      3.98840010e-03 6.19080989e-03 1.30820004e-02 1.30401999e-01
      3.38057995e-01 1.74327001e-01 1.60365999e-02 6.53968984e-03
      4.60493006e-03 1.19896000e-03 1.08661996e-02 4.73088995e-02
      2.94921994e-01 3.38057995e-01 3.38057995e-01 2.52180994e-02
      8.82572029e-03 7.53668020e-04 6.55853003e-02 1.03465997e-01
      2.15700999e-01 2.62167007e-01 2.62167007e-01 5.75781018e-02
      2.73139998e-02 4.51941006e-02 6.20143004e-02 2.62167007e-01
      1.89446002e-01 7.00552016e-02 1.09435998e-01 6.67741969e-02
      1.12883002e-02 5.28132990e-02 1.49835005e-01 2.62167007e-01
      5.73196001e-02 1.02632999e-01 1.18675001e-01 2.62167007e-01
      2.62167007e-01 2.62167007e-01 2.27063000e-02 9.55403037e-03
      1.53774004e-02 2.62167007e-01 2.09087998e-01 1.14993997e-01
      2.01239005e-01 2.62167007e-01 1.41850993e-01 1.01262003e-01
      8.40455964e-02 2.47162998e-01 2.83661008e-01 1.22679003e-01
      2.15805992e-02 9.61348042e-03 1.02334004e-02 9.26211998e-02
      2.40793005e-01 2.03207001e-01 2.40044996e-01 8.75623971e-02
      3.89262997e-02 9.83672030e-03 1.01933004e-02 3.92161012e-02
      2.46840000e-01 2.99712002e-01 1.63909003e-01 7.48613030e-02
      2.31551006e-01 6.54390976e-02 1.71319004e-02 1.37778996e-02
      2.70473007e-02 2.99712002e-01 2.99712002e-01 1.84417993e-01
      2.39041999e-01 1.44993998e-02 8.89392011e-03 4.64033009e-03
      2.75329011e-03 1.10633999e-01 2.99712002e-01 2.99712002e-01
      1.33922994e-01 3.37168984e-02 1.31026998e-01 1.59534998e-02
      1.40308002e-02 5.17158993e-02 1.34893999e-01 2.96945989e-01
      2.28141993e-01 9.34232026e-02 9.59274992e-02 8.37950036e-02
      1.39328996e-02 2.22075991e-02 1.30952999e-01 2.96945989e-01
      2.55410999e-01 1.61103994e-01 9.07116011e-02 8.12529996e-02
      4.48228978e-03 1.50750000e-02 2.96785999e-02 2.66654994e-02
      2.96945989e-01 2.96945989e-01 2.96945989e-01 7.84958005e-02
      1.93925004e-03 2.98257992e-02 3.99725977e-03 1.56675994e-01
      2.35594004e-01 2.96945989e-01 2.96945989e-01 2.18527004e-01
      5.43820001e-02 2.78206002e-02 4.53641005e-02 3.43999006e-02
      1.12336002e-01 1.90691993e-01 1.79250002e-01 1.03308000e-01
      8.77669007e-02 7.15989992e-02 3.70413996e-02 1.96081996e-01
      9.48133022e-02 2.39160001e-01 2.56305993e-01 1.36256993e-01
      1.23723000e-01 7.00917020e-02 1.01415001e-01 2.88646996e-01
      2.79875007e-02 1.57219991e-02 2.88646996e-01 2.88646996e-01
      2.88646996e-01 1.21781997e-01 6.26175031e-02 2.64688991e-02
      2.24347003e-02 1.06922001e-01 4.76902016e-02 2.88646996e-01
      2.88646996e-01 2.42999002e-01 1.16378002e-01 2.81591006e-02
      5.53992018e-02 2.39657998e-01 1.61594003e-01 6.43464029e-02
      9.50519964e-02 8.11289027e-02 7.02259988e-02 1.22210003e-01
      8.92060027e-02 2.45359004e-01 2.70716012e-01 3.41935009e-02
      2.17077006e-02 1.91658009e-02 5.39516993e-02 1.14680998e-01
      2.44556993e-01 2.07513005e-01 2.61869013e-01 2.08505005e-01
      8.29996020e-02 2.15930995e-02 1.55451000e-01 2.32361004e-01
      2.70716012e-01 2.61496991e-01 8.04385990e-02 1.74935997e-01
      2.70716012e-01 1.21990005e-02 1.02676004e-02 3.03520001e-02
      1.11902997e-01 2.70716012e-01 2.70716012e-01 1.44846007e-01
      1.46668002e-01 1.29683003e-01 1.02816997e-02 1.57612003e-02
      5.30004986e-02 1.36501998e-01 2.84189999e-01 2.84189999e-01
      2.69663990e-01 1.30767003e-01 4.09374014e-02 2.26150006e-02
      2.40362007e-02 1.06858000e-01 2.79300004e-01 2.84189999e-01
      1.89294994e-01 5.56561984e-02 1.83329005e-02 2.12533996e-02
      2.04435992e-03 1.83380004e-02 4.84898984e-02 1.96380004e-01
      2.84189999e-01 2.84189999e-01 2.45752007e-01 7.87935033e-02
      2.03393009e-02 1.62860993e-02 3.17350999e-02 2.05068007e-01
      2.84189999e-01 2.84189999e-01 1.11359000e-01 1.45234004e-01
      5.25835007e-02 2.07493994e-02 1.61179993e-02 1.21815000e-02
      1.86595991e-02 8.51363987e-02 3.19770008e-01 3.16024005e-01
      3.38287987e-02 5.65055013e-03 6.27416000e-03 9.41582024e-04
      1.04013002e-02 1.39461998e-02 1.46671996e-01 3.62744987e-01
      3.62744987e-01 2.25652993e-01 3.52119990e-02 6.56401971e-04
      2.48128995e-02 1.71802994e-02 3.21824998e-02 6.88475966e-02
      1.72257006e-01 2.19667003e-01 7.32043013e-02 1.84400994e-02
      1.19155999e-02 2.14081001e-03 2.69269999e-02 8.41381028e-03
      8.80232975e-02 2.85198987e-01 3.62744987e-01 3.62744987e-01
      6.29149005e-02 2.05080993e-02 9.46346018e-03 2.51007993e-02
      3.16228010e-02 1.67824000e-01 2.87196994e-01 2.87196994e-01
      1.29651994e-01 2.96809003e-02 4.58599022e-03 8.11998993e-02
      4.79936004e-02 3.28539014e-02 1.07450999e-01 2.87196994e-01
      2.83632010e-01 1.04759000e-01 4.18672003e-02 6.51239008e-02
      4.16810997e-03 4.40975018e-02 7.61196017e-03 1.23287000e-01
      2.87196994e-01 2.87196994e-01 2.87196994e-01 1.12202004e-01
      1.86484996e-02 3.24327983e-02 2.94429995e-02 5.70280990e-03
      8.03430974e-02 2.67569989e-01 2.87196994e-01 2.87196994e-01
      2.40685001e-01 5.15060015e-02 6.25630021e-02 2.31320001e-02
      1.66103002e-02 2.87194997e-02 6.33480027e-02 2.82155991e-01
      3.01180989e-01 4.32751998e-02 6.83024004e-02 9.60632041e-03
      5.18515985e-03 4.23665009e-02 1.08846001e-01 2.63945997e-01
      3.01180989e-01 3.01180989e-01 1.97071992e-02 1.41401002e-02
      3.72987986e-02 1.05100004e-02 7.43808970e-02 1.66556001e-01
      1.15207002e-01 2.08064005e-01 2.20599994e-01 9.69782993e-02
      3.83495018e-02 1.56270992e-02 1.29258996e-02 2.86798000e-01
      3.01180989e-01 3.01180989e-01 3.01180989e-01 1.97769001e-01
      9.36293043e-03 1.59940999e-02 1.50996004e-03 1.35324001e-02
      8.93687978e-02 1.25768006e-01 2.65354007e-01 2.65354007e-01
      2.31208995e-01 1.06309000e-02</_>
    <_>
      1.65324006e-02 5.99494986e-02 8.10509995e-02 1.69380993e-01
      2.81246990e-01 2.81246990e-01 1.75439999e-01 8.58969986e-02
      1.11087002e-01 1.09252997e-01 1.79785997e-01 2.47878000e-01
      2.44636998e-01 1.82089999e-01 1.18313998e-01 2.50797987e-01
      2.50797987e-01 1.55536998e-02 3.82907987e-02 8.92774984e-02
      2.27916002e-01 2.50797987e-01 2.50797987e-01 1.25098005e-01
      1.52548002e-02 3.77326012e-02 4.66571003e-02 6.13721013e-02
      1.24789998e-01 2.31323004e-01 2.50797987e-01 2.50797987e-01
      1.79010004e-01 1.26568004e-01 7.84531981e-02 6.72345012e-02
      5.00399992e-02 9.36945006e-02 2.50797987e-01 2.50797987e-01
      1.75863996e-01 5.08247986e-02 1.04841001e-01 2.77573001e-02
      1.07750006e-03 2.67284992e-03 1.07639004e-02 5.79112992e-02
      3.15250009e-01 3.15250009e-01 1.82889000e-01 4.13982011e-03 0.
      4.80142981e-03 3.98105988e-03 3.96464989e-02 1.56388998e-01
      3.15250009e-01 3.15250009e-01 4.49009016e-02 3.91446985e-03
      3.41608003e-03 5.27038015e-02 2.56213006e-02 7.85922036e-02
      2.50604987e-01 3.15250009e-01 3.03122014e-01 3.22565995e-02
      7.09298030e-02 1.20385000e-02 1.18332999e-02 1.55982999e-02
      1.51093006e-01 3.15250009e-01 3.15250009e-01 2.05164000e-01
      1.59102008e-02 2.75742006e-03 6.02123979e-03 6.96623977e-03
      3.71284992e-03 1.13567999e-02 1.75918996e-01 3.16762000e-01
      2.47412995e-01 5.23095988e-02 1.58660002e-02 3.90299992e-03
      7.66004017e-03 3.64915002e-03 2.10007001e-02 2.44504005e-01
      3.23612988e-01 3.23612988e-01 2.55695999e-01 5.77183999e-02
      5.58421994e-03 1.32472003e-02 4.46593994e-03 1.14312004e-02
      8.17957968e-02 2.10214004e-01 2.82521009e-01 5.13441004e-02
      3.27073000e-02 1.94549002e-02 1.23712998e-02 5.94272977e-03
      2.16138996e-02 8.04874003e-02 3.23612988e-01 3.23612988e-01
      3.23612988e-01 7.69933984e-02 1.54296998e-02 1.73052009e-02
      2.42187008e-02 8.00585970e-02 1.84949994e-01 1.79553002e-01
      2.90755004e-01 2.19015002e-01 4.72990014e-02 9.93163045e-03
      2.49333009e-02 5.38741983e-02 2.86985993e-01 2.90755004e-01
      1.78680003e-01 1.57486007e-01 8.31359029e-02 2.26374995e-02
      9.83371027e-03 2.72578001e-02 2.25297008e-02 5.43152988e-02
      7.73772001e-02 2.33352005e-01 2.90755004e-01 2.90755004e-01
      8.08226019e-02 2.10213009e-02 4.42330018e-02 3.80778015e-02
      9.45215970e-02 2.43092999e-01 1.93848997e-01 2.90755004e-01
      2.90755004e-01 1.85693994e-01 2.40161996e-02 9.40736011e-02
      1.04271002e-01 2.74942011e-01 2.74942011e-01 1.45740002e-01
      1.40619993e-01 8.42465982e-02 3.33912000e-02 7.72622973e-02
      1.13155998e-01 6.32186010e-02 8.26411024e-02 5.84140010e-02
      1.05540998e-01 2.74942011e-01 1.89198002e-01 1.01681001e-01
      1.99404001e-01 6.71143979e-02 5.62252998e-02 6.65083006e-02
      1.68890998e-01 1.27967998e-01 2.74942011e-01 2.74942011e-01
      2.74942011e-01 4.97312993e-02 1.28517002e-01 2.74942011e-01
      2.74942011e-01 4.45052013e-02 8.92165974e-02 1.38669997e-01
      2.03439996e-01 2.04769000e-01 7.10181966e-02 1.46589996e-02
      1.13092996e-02 3.08996998e-02 3.78017984e-02 1.57105997e-01
      3.31005007e-01 1.80280998e-01 5.43952994e-02 5.61596006e-02
      2.57479004e-03 6.14539022e-03 3.22312005e-02 4.41697985e-02
      1.93615004e-01 3.31005007e-01 1.52548999e-01 4.94268015e-02
      1.92082003e-02 3.58693004e-02 2.63727993e-01 3.31005007e-01
      1.25010997e-01 1.57967001e-01 3.31005007e-01 6.81831017e-02
      3.64682004e-02 1.33114997e-02 1.57261994e-02 1.19791999e-01
      2.81879991e-01 1.67033002e-01 2.50732988e-01 3.31005007e-01
      1.02946997e-01 4.89255004e-02 2.92501003e-02 8.45083967e-03
      2.57332996e-03 1.79542992e-02 3.47667001e-02 1.77600995e-01
      2.92668998e-01 1.12931997e-01 6.72146007e-02 2.93869991e-02
      1.45851001e-02 8.57466981e-02 2.11346999e-01 1.45496994e-01
      2.30795994e-01 2.65466988e-01 1.01314001e-01 7.77328983e-02
      3.78265008e-02 2.58700997e-02 1.25473002e-02 1.09926000e-01
      1.01915002e-01 2.53800005e-01 2.92668998e-01 1.24935001e-01
      1.29031003e-01 6.76990971e-02 1.20714996e-02 2.92668998e-01
      2.92668998e-01 2.92668998e-01 2.92668998e-01 2.73961991e-01
      8.10694024e-02 9.33023989e-02 4.41216007e-02 7.97467977e-02
      1.71601996e-01 2.70224005e-01 1.80839002e-01 1.45993993e-01
      9.46416035e-02 7.27043003e-02 1.08616002e-01 2.70847995e-02
      1.21784002e-01 1.14771999e-01 1.44770995e-01 1.33772999e-01
      1.08590998e-01 3.36208008e-02 2.19508007e-01 2.70224005e-01
      3.79806012e-02 6.53098002e-02 2.70224005e-01 2.70224005e-01
      1.92497000e-01 2.01175004e-01 1.21726997e-01 9.34417024e-02
      1.07390001e-01 1.49963005e-02 8.81932005e-02 1.37250006e-01
      2.11281002e-01 2.22690001e-01 2.30382994e-01 1.46832004e-01
      2.70224005e-01 2.70224005e-01 2.42523998e-02 6.67203963e-02
      2.01824997e-02 4.59563993e-02 1.28129005e-01 2.56841987e-01
      8.01438019e-02 2.80768991e-01 2.80768991e-01 2.34522000e-02
      6.38756016e-03 5.34211984e-03 6.05609007e-02 2.57470995e-01
      2.80768991e-01 5.00696003e-02 2.49699000e-02 9.18831024e-03
      5.86511008e-03 4.29022014e-02 2.05282997e-02 6.49280995e-02
      2.80768991e-01 2.80768991e-01 2.80768991e-01 2.80768991e-01
      2.80768991e-01 1.65276006e-02 3.19103003e-02 5.17937988e-02
      1.09007001e-01 2.80768991e-01 2.80768991e-01 8.63185003e-02
      9.36471000e-02 2.43299007e-02 1.12691000e-02 3.84715982e-02
      1.99970994e-02 2.49857996e-02 6.31354004e-02 1.69672996e-01
      2.67715991e-01 5.20173982e-02 3.68466005e-02 3.36904004e-02
      4.13208008e-02 1.94939002e-02 1.97710004e-02 7.23024011e-02
      3.90017003e-01 3.90017003e-01 3.90017003e-01 9.64272022e-02
      2.73809992e-02 2.67795995e-02 2.66766008e-02 3.75861004e-02
      3.78036983e-02 8.44431967e-02 9.36684012e-02 2.65459996e-02
      1.50616001e-02 1.66928992e-02 3.74075994e-02 2.58322991e-02
      5.75815998e-02 7.80010968e-02 2.02271998e-01 3.90017003e-01
      3.90017003e-01 1.77627996e-01 1.77772995e-02 3.76317017e-02
      1.45370001e-02 1.52473999e-02 1.95824001e-02 2.65726000e-01
      2.97775000e-01 2.97775000e-01 1.13730997e-01 1.96545999e-02
      5.55482991e-02 1.96889006e-02 3.01571004e-02 2.11108997e-02
      1.30825996e-01 2.87907988e-01 2.97775000e-01 2.42681995e-01
      3.77270989e-02 2.86570992e-02 7.67013989e-03 1.68168992e-02
      3.16024013e-02 1.36830002e-01 2.97775000e-01 2.97775000e-01
      2.52133012e-01 1.67606995e-02 3.40696014e-02 6.63710991e-03
      1.68216992e-02 1.72406994e-02 7.84808025e-02 1.98342994e-01
      2.97775000e-01 2.78670996e-01 6.32418022e-02 9.63343978e-02
      4.59569991e-02 3.25785987e-02 1.25936000e-02 3.30291018e-02
      1.45475000e-01 2.50272006e-01 2.50272006e-01 1.44237995e-01
      2.50272006e-01 2.50272006e-01 2.50272006e-01 3.91094014e-02
      2.35197991e-02 4.74279001e-02 2.11855993e-01 2.50272006e-01
      1.90111995e-01 1.24513000e-01 7.55492002e-02 5.58436997e-02
      2.73529999e-02 2.65587997e-02 8.22999999e-02 2.29434997e-01
      2.50272006e-01 1.87090993e-01 2.50272006e-01 2.43487000e-01
      1.99287996e-01 7.98178986e-02 4.11956012e-02 7.95954019e-02
      1.60539001e-01 2.18949005e-01 2.19234005e-01 1.10618003e-01
      2.55219996e-01 2.55219996e-01 1.05176002e-01 1.20599002e-01
      1.54072002e-01 1.45291999e-01 1.46210000e-01 4.94503006e-02
      3.88530008e-02 1.80282995e-01 2.55219996e-01 1.39954001e-01
      2.27644995e-01 2.49632001e-01 1.48692995e-01 9.84926969e-02
      4.57256995e-02 1.98093995e-01 1.53549001e-01 1.64470002e-01
      7.57115036e-02 2.32547998e-01 2.55219996e-01 1.63267002e-01
      1.40088007e-01 1.30171001e-01 1.10716000e-01 3.49402018e-02
      4.37738001e-02 5.13892993e-02 2.55219996e-01 2.55219996e-01
      1.53751001e-01 1.39283001e-01 1.56503007e-01 2.99199000e-02
      1.39426002e-02 8.64126012e-02 1.07782997e-01 2.67131001e-01
      2.01483995e-01 8.70580971e-02 7.23773986e-02 4.88457009e-02
      1.00616002e-02 1.53293997e-01 3.05678993e-01 2.89211005e-01
      3.05678993e-01 3.05678993e-01 9.41905975e-02 6.30953982e-02
      3.23688984e-02 4.73416001e-02 2.83228997e-02 4.03268002e-02
      6.71729967e-02 3.05678993e-01 1.81802005e-01 6.78635985e-02
      9.78202000e-02 9.36943963e-02 1.16907001e-01 2.12023005e-01
      1.05550997e-01 1.08943999e-01 3.05678993e-01 3.05678993e-01
      8.48312005e-02 8.63154009e-02 7.97965974e-02 1.75630003e-02
      1.50535002e-01 2.57851988e-01 1.53518006e-01 2.20461994e-01
      1.83275998e-01 1.07496001e-01 7.46247023e-02 1.20583000e-02
      1.52371004e-02 5.08899018e-02 2.27605999e-01 2.57851988e-01
      2.57851988e-01 1.24614000e-01 1.81528002e-01 1.07133001e-01
      6.75739022e-03 1.98560998e-01 2.57851988e-01 1.28548995e-01
      1.08584002e-01 2.40663007e-01 2.12441996e-01 8.26893002e-02
      1.04417004e-01 5.82037009e-02 1.46294996e-01 2.57851988e-01
      2.57851988e-01 2.57851988e-01 2.06773996e-01 4.47444990e-02
      5.59417009e-02 8.89303982e-02 4.75376993e-02 3.02370004e-02
      6.62079006e-02 2.38337994e-01 2.77545989e-01 2.77545989e-01
      1.40603006e-01 1.94363996e-01 7.65257999e-02 9.02604964e-03
      6.98091984e-02 1.66569993e-01 2.12086007e-01 2.65011996e-01
      1.34895995e-01 3.19738016e-02 4.84385006e-02 2.46032998e-02
      1.71146002e-02 1.61496997e-01 2.77545989e-01 2.77545989e-01
      2.77545989e-01 2.77545989e-01 5.22768013e-02 3.92461009e-02
      4.17698994e-02 7.12416992e-02 1.74325004e-01 2.77545989e-01
      2.53728002e-01 1.45105004e-01 3.41465995e-02 1.87867004e-02
      1.92616004e-02 2.59323008e-02 8.10170025e-02 5.50293997e-02
      4.89197001e-02 9.58117023e-02 7.01150969e-02 1.89646006e-01
      1.13642998e-01 7.87184015e-02 4.66871001e-02 5.15213013e-02
      7.63090998e-02 4.83458005e-02 1.98608994e-01 1.78676993e-01
      2.95352995e-01 3.22531998e-01 3.22531998e-01 3.22531998e-01
      6.73075989e-02 7.60912001e-02 3.01954001e-02 6.25924021e-02
      6.88776970e-02 1.70671001e-01 1.20099001e-01 1.31955996e-01
      1.00290999e-01 1.04606003e-01 7.23149031e-02 8.33764970e-02
      1.58802003e-01 9.25042033e-02 3.22531998e-01 3.22531998e-01
      2.14212999e-01 1.76577002e-01 7.46107027e-02 1.59933008e-02
      5.96660003e-03 3.70635986e-02 3.22354995e-02 6.96294010e-02
      1.51016995e-01 3.51372004e-01 3.41652989e-01 2.42480002e-02
      1.07538998e-01 2.12524999e-02 2.27945000e-02 1.99219994e-02
      4.29407991e-02 1.25418007e-01 3.51372004e-01 3.51372004e-01
      1.80500999e-01 2.37301998e-02 2.78494991e-02 5.81787005e-02
      2.96921004e-02 8.72858986e-02 1.05047002e-01 1.75557002e-01
      1.50481001e-01 3.04706004e-02 1.40847996e-01 5.75702004e-02
      4.86061014e-02 4.85422015e-02 4.39134017e-02 9.86668020e-02
      3.51372004e-01 3.51372004e-01 2.24123999e-01 2.01931998e-01
      1.06505997e-01 3.80181000e-02 1.52428998e-02 9.45101026e-03
      3.25401016e-02 2.16303006e-01 2.33629003e-01 1.94642007e-01
      2.90693998e-01 1.79633006e-01 1.07791997e-01 3.15300003e-02
      1.64243001e-02 2.09669005e-02 5.02177998e-02 1.74778000e-01
      2.42390007e-01 2.08474994e-01 9.39882025e-02 2.19953991e-02
      1.41417999e-02 1.01661002e-02 2.67149005e-02 2.90693998e-01
      2.90693998e-01 2.90693998e-01 2.90693998e-01 1.22055002e-01
      3.23669985e-02 4.78253979e-03 7.14163994e-03 2.51935003e-03
      6.43116012e-02 2.90693998e-01 2.90693998e-01 2.40179002e-01
      5.47578000e-02 6.26019984e-02 2.40387991e-02 7.07790032e-02
      1.00322999e-01 4.17523012e-02 1.53510004e-01 2.86774993e-01
      1.84211001e-01 2.62540001e-02 2.28604991e-02 1.42269004e-02
      1.18793003e-01 1.46433994e-01 7.47437999e-02 2.17400998e-01
      2.86774993e-01 2.86774993e-01 1.01256996e-01 3.63379009e-02
      1.57371000e-03 1.37192002e-02 1.28394999e-02 1.78225003e-02
      2.65958011e-01 2.86774993e-01 2.86774993e-01 2.86774993e-01
      1.99532002e-01 2.07016002e-02 1.06314003e-01 4.88835014e-02
      5.53076006e-02 2.28401005e-01 2.86774993e-01 1.29365996e-01
      9.00524035e-02 8.93142000e-02 4.90070991e-02 1.32482007e-01
      8.76165032e-02 4.95002009e-02 2.29177997e-01 2.42828995e-01
      2.20364004e-01 2.42828995e-01 2.02041000e-01 8.41900036e-02
      2.42828995e-01 2.11184993e-01 2.69310009e-02 1.14426002e-01
      1.98871002e-01 2.42828995e-01 2.42828995e-01 2.14890003e-01
      6.47808015e-02 1.21462002e-01 6.51850030e-02 4.96045016e-02
      1.81951001e-01 2.42828995e-01 2.42828995e-01 2.42828995e-01
      2.09417000e-01 1.21042997e-01 4.76393998e-02 4.55555990e-02
      1.53230997e-02 7.52405003e-02 2.05653995e-01 2.91747004e-01
      2.91747004e-01 2.18545005e-01 1.37743995e-01 1.63618997e-01
      1.54682994e-01 3.77533995e-02 9.21721011e-02 1.53808996e-01
      2.91747004e-01 2.91747004e-01 2.75949001e-01 2.91747004e-01
      1.57405004e-01 2.74624005e-02 3.04728001e-02 7.01019019e-02
      1.28373995e-01 2.57515013e-01 2.91747004e-01 1.53432995e-01
      1.27288997e-01 4.76473011e-02 4.10761982e-02 2.89510004e-02
      5.72265014e-02 1.25515997e-01 1.38457000e-01 1.18841000e-01
      6.36591986e-02 8.23511034e-02 5.21849990e-02 2.62665004e-02
      2.57866997e-02 7.76934996e-02 1.65074006e-01 2.50180990e-01
      2.50180990e-01 2.50180990e-01 2.50180990e-01 2.40218997e-01
      5.03436998e-02 4.08722982e-02 7.76342973e-02 2.36745000e-01
      2.50180990e-01 2.50180990e-01 2.50180990e-01 1.97592005e-01
      7.60809034e-02 8.13414976e-02 4.98315990e-02 6.94788024e-02
      1.91334993e-01 1.59195006e-01 1.57934994e-01 1.78127006e-01
      1.67998999e-01 1.26855001e-01 2.89693996e-02 2.75582001e-02
      1.10449001e-01 2.44213998e-01 1.43659994e-01 1.44889995e-01
      1.55939996e-01 1.60171002e-01 1.59069002e-01 9.24922004e-02
      4.59204987e-02 5.59356995e-02 9.77018997e-02 0. 0. 0. 0. 0. 0. 0.
      0. 0. 0. 0. 0. 0. 0. 0. 0. 0. 0. 0. 0. 0. 0. 0. 0. 0. 0. 0. 0.
      2.22941995e-01 1.36878997e-01 5.60247004e-02 7.89330006e-02
      4.40788008e-02 8.58595967e-02 1.21642999e-01 1.44878000e-01
      1.86912999e-01 2.41568998e-01 1.99661002e-01 1.35708004e-01
      1.31381005e-01 9.11523029e-02 1.50915995e-01 1.68228000e-01
      1.29763007e-01 2.09134996e-01 1.75091997e-01 1.24779999e-01
      1.05068997e-01 6.51715994e-02 7.14192018e-02 1.06089003e-01
      1.59196004e-01 1.56590000e-01 1.21946998e-01 2.41568998e-01
      1.50904998e-01 1.64547995e-01 2.08077997e-01 2.41568998e-01
      2.41568998e-01 2.41568998e-01 2.41568998e-01 2.41568998e-01
      1.66158006e-01 1.45083994e-01 1.02444999e-01 5.94012998e-02
      6.37191981e-02 1.04369000e-01 1.07840002e-01 1.01354003e-01
      9.45502967e-02 1.76156998e-01 1.56441003e-01 1.28459007e-01
      8.26238021e-02 1.16020001e-01 1.70984000e-01 1.85577005e-01
      1.15957998e-01 7.50826001e-02 2.55246997e-01 2.42137000e-01
      9.34951007e-02 9.63841006e-02 1.53145000e-01 1.45536005e-01
      2.46179998e-01 2.54494011e-01 2.07448006e-01 2.55246997e-01
      2.55246997e-01 1.73694998e-01 8.41737017e-02 1.12306997e-01
      1.24651000e-01 2.31527999e-01 2.11197004e-01 2.55246997e-01
      9.40423012e-02 6.37376010e-02 1.06962003e-01 8.09075013e-02
      1.48867995e-01 1.67835996e-01 8.88350010e-02 4.20297012e-02
      4.87197004e-02 1.80176005e-01 1.08296998e-01 1.13858998e-01
      6.61045983e-02 1.34287998e-01 1.27394006e-01 7.08540976e-02
      1.19437002e-01 8.80376995e-02 3.11650008e-01 3.11650008e-01
      1.95249006e-01 9.89338979e-02 1.23127997e-01 1.32798001e-01
      6.11255988e-02 8.48084986e-02 3.06600988e-01 3.11650008e-01
      3.11650008e-01 2.07205996e-01 8.43684971e-02 9.96512026e-02
      9.07884985e-02 4.97700013e-02 1.97071001e-01 3.11650008e-01
      1.77350998e-01 1.26187995e-01 9.48785990e-02 3.32493000e-02
      2.80562006e-02 2.11669002e-02 4.52360995e-02 1.30364001e-01
      8.06989968e-02 1.17595002e-01 1.92963004e-01 1.98091999e-01
      1.58777997e-01 1.16985001e-01 6.38798028e-02 4.31809984e-02
      6.53280988e-02 4.82634008e-02 2.63893992e-01 2.63893992e-01
      1.19237997e-01 3.37760001e-02 1.56372003e-02 5.56163006e-02
      8.61701965e-02 2.63893992e-01 2.63893992e-01 2.63893992e-01
      2.63893992e-01 2.49224007e-01 2.63893992e-01 2.10336000e-01
      1.59804001e-01 1.41506001e-01 2.63893992e-01 1.90239996e-01
      1.12320997e-01 2.31712997e-01 1.36948004e-01 1.55710995e-01
      7.43964016e-02 3.57050002e-02 2.16156002e-02 2.53721997e-02
      1.79533996e-02 2.71183997e-01 2.71183997e-01 9.73730981e-02
      8.23061988e-02 2.48926003e-02 2.78485995e-02 3.51082012e-02
      8.79207030e-02 1.66061997e-01 1.58465996e-01 2.71183997e-01
      2.46460006e-01 2.71183997e-01 2.71183997e-01 1.25332996e-01
      5.72425015e-02 2.62119006e-02 2.17119996e-02 2.71183997e-01
      2.71183997e-01 2.71183997e-01 2.71183997e-01 1.57760993e-01
      1.16077997e-01 7.62526989e-02 3.10030002e-02 1.12002000e-01
      2.95190990e-01 1.67392999e-01 3.68001983e-02 1.34017002e-02
      1.55392997e-02 1.65148005e-02 2.95563005e-02 1.14698000e-01
      2.49007002e-01 2.95190990e-01 1.33784994e-01 7.21639022e-02
      1.41839003e-02 1.81646999e-02 9.06151999e-03 3.76993008e-02
      2.15326995e-01 2.95190990e-01 2.95190990e-01 2.95190990e-01
      1.39524996e-01 4.85882983e-02 1.87177993e-02 2.34526005e-02
      3.68853994e-02 9.38818976e-02 1.99922994e-01 2.95190990e-01
      1.23832002e-01 4.68630008e-02 1.23870997e-02 2.88995001e-02
      1.13121003e-01 1.34722993e-01 2.95190990e-01 2.95190990e-01
      2.32244998e-01 1.04832999e-01 6.21717982e-02 1.32457996e-02
      1.38109997e-02 6.87213987e-02 1.66705996e-01 2.29810998e-01
      2.85223991e-01 4.99465987e-02 6.53456002e-02 4.11328003e-02
      5.83050996e-02 5.49952984e-02 1.68824002e-01 2.85223991e-01
      1.32010996e-01 1.19027004e-01 1.25650004e-01 2.01079994e-02
      8.25871993e-03 2.68296991e-03 2.02613994e-02 2.83024997e-01
      2.85223991e-01 2.85223991e-01 2.85223991e-01 5.30233011e-02
      1.87902991e-02 1.04350001e-02 1.50141995e-02 3.27579007e-02
      2.85223991e-01 2.85223991e-01 2.85223991e-01 1.24545999e-01
      6.98342994e-02 6.92775026e-02 5.05135991e-02 2.15828009e-02
      3.17505002e-02 3.41845006e-02 4.80040982e-02 4.25718017e-02
      4.35932986e-02 2.41326004e-01 1.75803006e-01 1.66907996e-01
      8.52698013e-02 2.41201997e-01 1.07009001e-01 1.32249996e-01
      1.29473999e-01 1.73461005e-01 1.43228993e-01 1.59091994e-01
      6.55435994e-02 4.42029014e-02 4.56054993e-02 5.03907986e-02
      3.86886001e-02 8.89507979e-02 6.82336986e-02 3.04949999e-01
      3.04949999e-01 3.04949999e-01 2.65024990e-01 3.04949999e-01
      1.60563007e-01 1.43066004e-01 2.56128997e-01 3.04949999e-01
      1.01883002e-01 1.88695997e-01 1.28116995e-01 3.09162997e-02
      5.67734987e-02 2.58255992e-02 5.17836995e-02 5.12699001e-02
      6.74427003e-02 2.30419993e-01 2.95073986e-01 1.44562006e-01
      2.37131007e-02 1.51947998e-02 1.17017003e-02 2.76727993e-02
      4.79057990e-02 1.57909006e-01 1.88660994e-01 2.95073986e-01
      2.95073986e-01 1.24564998e-01 1.65946007e-01 4.49910983e-02
      1.33595005e-01 1.65059000e-01 1.76991999e-01 2.95073986e-01
      2.95073986e-01 2.93092996e-01 6.68987036e-02 5.05213998e-02
      4.53939997e-02 1.71106994e-01 1.59035996e-01 2.73920000e-01
      2.82422006e-01 2.83488005e-01 7.28712007e-02 1.18787000e-02
      9.64548998e-03 1.61290001e-02 3.88961006e-03 2.51867995e-02
      1.81425005e-01 2.83488005e-01 2.83488005e-01 1.87739000e-01
      2.20516007e-02 8.21540970e-03 1.14297001e-02 2.24696007e-03
      3.58860008e-02 1.80829003e-01 2.83488005e-01 2.83488005e-01
      1.40887007e-01 5.87921999e-02 4.14698012e-02 5.21312989e-02
      8.13324004e-02 7.94624984e-02 2.13187993e-01 2.83488005e-01
      2.83488005e-01 2.83488005e-01 2.24711999e-01 6.25422001e-02
      4.75330018e-02 5.23305014e-02 4.95789014e-02 1.31176993e-01
      2.98180997e-01 1.85583994e-01 1.12098999e-01 1.63870994e-02
      1.76996004e-03 1.93786994e-02 1.56138996e-02 7.98313022e-02
      1.37961000e-01 2.21349999e-01 1.67318001e-01 4.11547013e-02
      4.11151014e-02 3.09624001e-02 6.23232983e-02 4.20432016e-02
      1.05356000e-01 1.53717995e-01 3.11426997e-01 3.11426997e-01
      2.68236995e-01 1.02899000e-01 1.88440997e-02 1.15560004e-02
      1.53230000e-02 6.86573982e-02 1.87098995e-01 3.11426997e-01
      3.11426997e-01 2.83106007e-02 1.59192998e-02 8.05713981e-03
      3.39559987e-02 7.60394037e-02 3.11426997e-01 3.11426997e-01
      1.31592005e-01 1.79630995e-01 6.16526008e-02 1.13139004e-01
      1.35168001e-01 1.86436996e-01 8.60719979e-02 5.51573001e-02
      8.64624977e-02 6.79427981e-02 1.15672000e-01 1.16140999e-01
      1.07074998e-01 9.14618000e-02 2.52382994e-01 2.10639998e-01
      3.10993996e-02 3.05179991e-02 1.75132006e-01 1.32722005e-01
      8.43556039e-03 2.33852994e-02 6.81831986e-02 1.69837996e-01
      3.16760987e-01 3.16760987e-01 3.16760987e-01 3.38847004e-02
      2.74924003e-02 1.43446000e-02 1.73381008e-02 9.36017036e-02
      3.16760987e-01 3.16760987e-01 3.16760987e-01 5.30739017e-02
      1.70032993e-01 2.04471007e-01 1.70865998e-01 7.11053014e-02
      5.30432016e-02 1.70247003e-01 2.97746003e-01 1.64045006e-01
      9.83659998e-02 9.09605026e-02 7.77662024e-02 4.30485010e-02
      2.91002002e-02 6.55466989e-02 1.70063004e-01 2.03410998e-01
      3.05617988e-01 1.61344007e-01 3.01358998e-02 1.32756000e-02
      2.31814999e-02 2.61509996e-02 8.09383020e-02 3.05617988e-01
      3.05617988e-01 2.98884004e-01 8.35494027e-02 2.93843001e-02
      6.03614002e-02 1.16681000e-02 5.10347001e-02 8.97243023e-02
      2.05328003e-01 3.05617988e-01 2.62403011e-01 1.10459000e-01
      1.70923993e-02 1.17667997e-02 2.06685998e-03 4.38216981e-03
      4.29012999e-02 2.94241011e-01 2.94241011e-01 2.94241011e-01
      1.28196999e-01 3.59614007e-02 1.35855004e-03 1.82253995e-03
      1.55552998e-02 1.07414000e-01 2.94241011e-01 2.94241011e-01
      2.94241011e-01 7.97469988e-02 1.78171992e-02 3.06215007e-02
      2.37140991e-02 4.29816991e-02 1.27225995e-01 2.61833012e-01
      2.46244997e-01 9.81274992e-02 7.76700974e-02 1.79932993e-02
      3.29515990e-03 2.29490008e-02 4.42270003e-02 2.94241011e-01
      2.94241011e-01 2.94241011e-01 1.01616003e-01 4.29470986e-02
      3.68423015e-02 6.34837002e-02 7.33963996e-02 1.61626004e-02
      1.01087000e-02 6.58866018e-03 2.77529992e-02 4.56201993e-02
      1.73524003e-02 8.57936963e-02 3.57073992e-01 3.76949996e-01
      1.33773997e-01 1.15244001e-01 2.78050993e-02 3.24729010e-02
      9.69688967e-02 7.84237012e-02 5.05186990e-02 7.59152994e-02
      3.11681002e-01 2.76535004e-01 7.04810992e-02 1.66526996e-02
      1.00302003e-01 1.14834003e-01 3.95728983e-02 5.00423983e-02
      3.46359998e-01 3.76949996e-01 3.76949996e-01 1.70406997e-01
      1.90214999e-02 5.17865010e-02 6.88979030e-02 3.02776992e-02
      1.15580998e-01 2.76436001e-01 2.76436001e-01 1.49195999e-01
      9.76812989e-02 6.95113018e-02 1.62446007e-01 1.54900998e-01
      1.08857997e-01 2.15709001e-01 1.48545995e-01 8.92928988e-02
      1.37141004e-01 9.64282975e-02 1.08032003e-01 2.32385993e-01
      1.54529005e-01 1.83163002e-01 5.93300983e-02 2.01006994e-01
      2.76436001e-01 2.76436001e-01 1.39201999e-01 7.93017969e-02
      1.14327997e-01 6.99884966e-02 3.42697017e-02 1.13002002e-01
      5.30834012e-02 2.67832011e-01 2.76436001e-01 1.98691994e-01
      1.33861005e-01 1.57919005e-01 8.31703022e-02 9.92105976e-02
      2.35228002e-01 9.67727005e-02 5.02633005e-02 1.01301000e-01
      9.38571021e-02 1.56701997e-01 1.75207004e-01 7.85078034e-02
      1.56000003e-01 1.62358001e-01 2.90329993e-01 1.66589007e-01
      1.74985006e-01 1.12272002e-01 2.78259993e-01 2.41216004e-01
      9.25327986e-02 5.71595989e-02 1.28273994e-01 3.85260992e-02
      7.92718977e-02 1.87316999e-01 1.66199997e-01 1.97254002e-01
      2.01719001e-01 8.49270001e-02 1.19675003e-01 8.32054988e-02
      1.96125001e-01 6.13329001e-02 1.06636003e-01 1.08681001e-01
      2.90329993e-01 2.90329993e-01 2.44862005e-01 8.39010999e-02
      2.31263995e-01 2.71930993e-01 1.07836001e-01 7.01891035e-02
      3.57566997e-02 9.61470008e-02 1.20268002e-01 1.01916000e-01
      8.44829977e-02 2.16096997e-01 2.22292006e-01 2.40679998e-02
      6.73177000e-03 1.18701002e-02 5.53667992e-02 1.42819002e-01
      2.71930993e-01 2.36543000e-01 1.41090006e-01 1.81357995e-01
      2.94502992e-02 2.86066998e-02 3.02917995e-02 2.71930993e-01
      2.71930993e-01 2.61835992e-01 1.71950996e-01 2.71930993e-01
      1.32377997e-01 2.49434002e-02 1.37590999e-02 1.53256999e-02
      7.32415020e-02 1.90197006e-01 2.26115003e-01 2.71930993e-01
      6.51540011e-02 4.05003987e-02 3.40441018e-02 3.71517986e-02
      7.23773986e-02 1.03642002e-01 2.72163004e-01 2.72163004e-01
      1.37283996e-01 2.07023993e-02 1.01434002e-02 2.31244992e-02
      7.43224025e-02 1.54326007e-01 2.15004995e-01 2.72163004e-01
      2.57194012e-01 1.83822997e-02 2.72163004e-01 1.59024000e-01
      6.43913969e-02 2.72163004e-01 1.82901993e-01 1.04964003e-01
      1.75362006e-01 1.60659000e-01 1.34059995e-01 9.13114026e-02
      5.32837994e-02 4.89175990e-02 2.72163004e-01 2.72163004e-01
      2.72163004e-01 2.17691004e-01 9.13520008e-02 2.41280999e-02
      2.87468992e-02 2.43734010e-03 8.31986032e-03 6.03028014e-02
      1.29639000e-01 2.81958997e-01 2.81958997e-01 2.34871998e-01
      3.43489982e-02 1.73796993e-02 1.86157003e-02 9.43677034e-03
      3.69075015e-02 6.95222989e-02 1.92523003e-01 2.81958997e-01
      2.12672994e-01 3.92123014e-02 2.59562004e-02 3.59831005e-03
      1.98753998e-02 2.81958997e-01 2.81958997e-01 2.81958997e-01
      2.81958997e-01 2.00937003e-01 2.51215994e-02 1.56562999e-02
      6.65210001e-03 1.33205997e-02 7.03525022e-02 1.52601004e-01
      2.81958997e-01 2.81958997e-01 2.04866007e-01 2.13990994e-02
      2.47978009e-02 3.55195999e-02 4.78811003e-02 8.90500993e-02
      1.80943996e-01 2.06634998e-01 1.97942004e-01 1.05111003e-01
      5.71804009e-02 2.48822998e-02 1.12142004e-02 3.56131010e-02
      9.56190974e-02 3.12521011e-01 3.12521011e-01 2.07714006e-01
      6.81369007e-02 4.88022007e-02 1.65950004e-02 2.33837999e-02
      4.65148017e-02 1.56273007e-01 3.12521011e-01 3.12521011e-01
      2.75254995e-01 7.97607005e-02 2.10088007e-02 1.71368998e-02
      1.01338001e-02 4.21489999e-02 3.12521011e-01 3.12521011e-01
      2.99306989e-01 6.96118027e-02 3.71579006e-02 2.31957994e-02
      6.01079985e-02 3.91974002e-02 1.50740996e-01 2.96822011e-01
      1.41293004e-01 4.13798988e-02 4.01079990e-02 3.89962010e-02
      4.03367989e-02 1.13790996e-01 1.23818003e-01 2.96822011e-01
      2.96822011e-01 2.00307995e-01 3.90582010e-02 2.04534996e-02
      1.02875000e-02 3.38438004e-02 1.26267001e-01 4.10812981e-02
      9.01961029e-02 2.96822011e-01 2.96822011e-01 9.00057033e-02
      1.41663002e-02 2.03227997e-02 8.54521990e-02 2.96822011e-01
      2.03457996e-01 2.46369004e-01 2.96822011e-01 2.96822011e-01
      9.80672017e-02 2.71269996e-02 1.44399004e-02 1.08935997e-01
      6.78312033e-02 1.24251001e-01 3.31936002e-01 3.31936002e-01
      1.73923999e-01 4.11657989e-02 2.09956001e-02 4.42478992e-03
      1.12198004e-02 2.20545009e-02 7.32283965e-02 2.88576007e-01
      3.31936002e-01 1.53058007e-01 8.17511976e-02 4.19676006e-02
      2.54580006e-02 1.65577997e-02 2.50373006e-01 2.22115993e-01
      3.29658002e-01 3.31936002e-01 1.28883004e-01 5.37840016e-02
      5.01547009e-02 3.24841999e-02 7.08616972e-02 2.01887995e-01
      8.79475996e-02 9.05610994e-02 1.66336000e-01 7.12445006e-02
      7.39212036e-02 5.88721000e-02 8.49175975e-02 1.64610997e-01
      4.59090993e-02 6.29146993e-02 8.52619037e-02 1.49425000e-01
      1.39622003e-01 1.52756006e-01 1.44558996e-01 9.49418023e-02
      5.03121018e-02 6.18553013e-02 1.53475003e-02 3.68942991e-02
      6.43130988e-02 6.28501996e-02 3.10606003e-01 3.10606003e-01
      3.10606003e-01 1.41421005e-01 3.10606003e-01 6.41222000e-02
      2.45933998e-02 5.26214018e-02 5.46048991e-02 9.95905995e-02
      8.85640979e-02 2.14561000e-01 2.58002996e-01 1.53623000e-01
      3.59081998e-02 1.46342004e-02 6.00376017e-02 8.12532976e-02
      1.97281003e-01 3.10606003e-01 3.10606003e-01 2.41940007e-01
      2.20489994e-01 1.49907004e-02 2.64047994e-03 7.81381037e-03
      1.69437006e-02 2.20296994e-01 2.92403996e-01 2.73932993e-01
      2.92403996e-01 2.92403996e-01 1.30565003e-01 1.14574004e-02
      1.20905004e-02 1.17388004e-02 3.66295986e-02 1.36767000e-01
      1.43344998e-01 2.92403996e-01 1.29098997e-01 8.95437971e-03
      2.39988999e-03 2.48617996e-02 7.82497972e-02 1.07731998e-01
      2.77837992e-01 2.14743003e-01 2.01133996e-01 2.92403996e-01
      4.22182009e-02 4.46549011e-03 1.51437996e-02 6.27952963e-02
      1.11752003e-01 1.36155993e-01 1.31862998e-01 2.92403996e-01</_>
    <_>
      1.40204996e-01 6.72878996e-02 2.79690009e-02 9.66408011e-03
      6.03698986e-03 3.58989984e-02 1.31549999e-01 3.32639009e-01
      3.32639009e-01 3.24876010e-01 7.57891014e-02 1.50194000e-02
      1.11226998e-02 8.15542974e-03 7.01913983e-03 1.21036004e-02
      1.15575001e-01 3.32639009e-01 2.97318995e-01 1.24173000e-01
      1.26830004e-02 3.46940011e-03 3.21848993e-03 4.62258980e-03
      1.80652998e-02 2.64481008e-01 3.32639009e-01 3.32639009e-01
      2.34596997e-01 3.86445001e-02 1.85787994e-02 5.12110023e-03
      1.00925997e-01 2.74352998e-01 2.82301992e-01 2.82301992e-01
      1.63543999e-01 3.27586010e-02 9.01888032e-03 1.62001997e-02
      2.05143001e-02 1.79259002e-01 2.82301992e-01 2.43708998e-01
      4.09747995e-02 3.31497006e-02 7.32525997e-03 2.66235005e-02
      1.34101003e-01 1.35100007e-01 3.22229005e-02 1.87439993e-01
      2.82301992e-01 2.82301992e-01 2.82301992e-01 1.03942998e-01
      4.38618995e-02 2.89455000e-02 1.35409003e-02 1.66114002e-01
      2.82301992e-01 2.82301992e-01 1.50175005e-01 2.19854992e-02
      1.57334991e-02 4.80211005e-02 8.69553015e-02 6.01175986e-02
      2.25318998e-01 2.74893999e-01 9.97762010e-02 1.72125995e-02
      1.75218992e-02 1.96771994e-02 1.17485002e-01 2.74893999e-01
      2.36858994e-01 1.38198003e-01 1.35243997e-01 2.90863998e-02
      5.53581007e-02 7.41764978e-02 9.54335034e-02 2.74893999e-01
      2.74893999e-01 1.74830005e-01 1.61592007e-01 2.74893999e-01
      1.86801001e-01 2.18199994e-02 4.82067000e-03 1.16699999e-02
      2.01536000e-01 2.74893999e-01 1.15505002e-01 3.25521007e-02
      3.57814990e-02 1.69613007e-02 5.11182994e-02 1.51304007e-01
      1.56467006e-01 2.74893999e-01 2.74893999e-01 8.00604001e-02
      2.99642999e-02 3.27018984e-02 2.70556994e-02 5.39548993e-02
      1.16912000e-01 1.54271007e-01 2.66130000e-01 2.48785004e-01
      7.42082968e-02 3.95382987e-03 1.82504999e-03 7.22396970e-02
      1.42477006e-01 2.70505995e-01 2.65686989e-01 2.61078000e-01
      1.11337997e-01 1.86502002e-02 5.71645983e-03 8.54219962e-03
      3.16930003e-02 1.14170998e-01 2.70505995e-01 2.70505995e-01
      2.70505995e-01 2.70505995e-01 1.92505997e-02 7.34973978e-03
      1.88866002e-03 4.12159003e-02 2.24491000e-01 2.70505995e-01
      2.70505995e-01 2.32389003e-01 7.78393969e-02 3.59803997e-03
      2.53258999e-02 3.69489007e-02 2.59562999e-01 2.59562999e-01
      2.59562999e-01 1.62294999e-01 1.06564000e-01 4.62241992e-02
      1.77832004e-02 6.67933002e-02 7.13811964e-02 2.59562999e-01
      2.50220001e-01 6.39740005e-02 8.38752016e-02 1.02356002e-01
      1.44540995e-01 1.80421993e-01 8.55435990e-03 1.07423002e-02
      7.84682035e-02 2.26705998e-01 2.59562999e-01 2.59562999e-01
      2.59562999e-01 2.59562999e-01 1.22563997e-02 2.85800993e-02
      3.06413006e-02 8.50704983e-02 1.15809999e-01 1.22681998e-01
      1.95019007e-01 2.59562999e-01 2.59562999e-01 3.04814000e-02
      3.62149999e-02 3.42752002e-02 4.52102013e-02 2.30061002e-02
      5.57093993e-02 2.64059007e-01 2.28424996e-01 2.20771000e-01
      2.02143997e-01 8.94309022e-03 6.26287982e-03 7.01738009e-03
      2.91517992e-02 1.81648001e-01 2.78086990e-01 2.78086990e-01
      1.33958995e-01 4.51476015e-02 3.01405005e-02 1.05907001e-01
      1.93858996e-01 4.10685986e-02 9.38818976e-02 2.78086990e-01
      2.44867995e-01 1.63859993e-01 1.71466004e-02 1.46289002e-02
      1.42882004e-01 2.78086990e-01 1.93450004e-01 2.78086990e-01
      2.78086990e-01 2.32213005e-01 1.46343997e-02 7.70574016e-03
      7.56976008e-03 4.71560005e-03 1.64612997e-02 5.78864999e-02
      2.42606997e-01 3.02349001e-01 3.02349001e-01 3.94098982e-02
      6.73088990e-03 7.80455023e-03 1.33699998e-02 2.04959009e-02
      8.39724988e-02 2.96501994e-01 2.09588006e-01 4.99198996e-02
      1.20500997e-02 7.70440977e-03 8.05235002e-03 6.17124997e-02
      2.20722005e-01 2.60553986e-01 3.02349001e-01 3.02349001e-01
      2.66889989e-01 8.21948983e-03 5.31677017e-03 8.04996025e-03
      7.13338032e-02 7.73134977e-02 2.81926006e-01 3.02349001e-01
      2.19405994e-01 5.31118996e-02 6.00198982e-03 9.09988955e-03
      2.57380004e-03 3.90009000e-03 3.20384018e-02 3.20491999e-01
      3.21837991e-01 1.12889998e-01 1.53615000e-02 1.26130006e-03
      2.36857007e-03 5.99984021e-04 1.06803998e-02 8.97011012e-02
      3.21837991e-01 3.21837991e-01 1.91927999e-01 3.15826014e-02
      9.22319014e-03 6.82028010e-04 2.45489995e-03 7.81698991e-03
      7.03016017e-03 2.58417010e-01 3.21837991e-01 1.96275994e-01
      3.25081982e-02 6.41890988e-03 6.26449008e-03 2.24509000e-04
      3.14417994e-03 2.20733006e-02 3.21837991e-01 3.21837991e-01
      3.21837991e-01 4.28550988e-02 1.66303001e-03 3.48136004e-04
      7.80367991e-03 9.00570005e-02 2.84332007e-01 2.84332007e-01
      2.84332007e-01 1.04760997e-01 4.21267003e-02 1.79829001e-02
      2.67456006e-03 6.33796006e-02 2.44437993e-01 2.84332007e-01
      2.84332007e-01 8.95304978e-02 4.68861014e-02 6.38763979e-02
      7.30367005e-02 3.36054005e-02 9.76637006e-04 8.38780031e-03
      8.83734971e-02 2.84332007e-01 2.84332007e-01 2.84332007e-01
      3.77418995e-02 6.16860017e-03 1.02261000e-03 2.34597009e-02
      2.39490997e-02 1.00396000e-01 2.48751998e-01 2.74361014e-01
      2.84332007e-01 6.60941973e-02 3.33122015e-02 2.45226007e-02
      5.52147999e-02 1.27767995e-01 1.14286996e-01 5.21884002e-02
      3.64854001e-02 4.63561006e-02 1.75933003e-01 3.28341007e-01
      7.02831000e-02 2.36654002e-03 5.21562994e-03 3.24078999e-03
      2.12162003e-01 3.43396991e-01 2.70386994e-01 3.12855005e-01
      3.43396991e-01 6.32957965e-02 5.03836013e-02 3.29171009e-02
      6.34898022e-02 1.64670005e-01 1.33563995e-01 1.01891004e-01
      7.18669966e-02 9.71755013e-02 5.32401018e-02 2.45868992e-02
      1.98685993e-02 4.63194996e-02 3.43396991e-01 3.43396991e-01
      1.53813004e-01 5.86613007e-02 1.02594003e-01 3.59383002e-02
      1.05646998e-03 3.93861003e-04 7.99702015e-03 2.00815007e-01
      3.01975995e-01 3.01975995e-01 1.85003996e-01 1.44661993e-01
      1.29952002e-02 1.35832001e-03 3.44166998e-04 9.96045955e-03
      9.37142968e-02 3.01337987e-01 3.01975995e-01 2.77913004e-01
      6.29329979e-02 1.78006000e-03 8.78149993e-04 4.30948008e-03
      1.33993002e-02 3.01975995e-01 3.01975995e-01 1.72707006e-01
      4.85544987e-02 3.91981006e-02 7.61116017e-03 8.56558036e-05
      1.72454002e-03 8.18022992e-03 9.30420980e-02 2.79275000e-01
      3.01975995e-01 2.24255994e-01 4.69840989e-02 6.66920980e-03
      2.39761989e-03 1.63654995e-03 1.44839997e-03 3.46020013e-02
      1.80000007e-01 3.00545007e-01 3.00545007e-01 3.00545007e-01
      2.29642000e-02 7.61879981e-02 7.29734972e-02 4.87768985e-02
      6.70371996e-03 4.08697985e-02 1.18695997e-01 3.00545007e-01
      3.00545007e-01 8.49291012e-02 0. 0. 2.65362998e-03 2.73327008e-02
      8.59225988e-02 3.00545007e-01 3.00545007e-01 1.86428994e-01
      2.50351001e-02 6.68329969e-02 6.92147985e-02 3.22616994e-02
      2.97010001e-02 8.44293013e-02 2.07921997e-01 3.00545007e-01
      3.00545007e-01 9.12832022e-02 1.32494003e-01 2.55026996e-01
      2.55026996e-01 2.08356008e-02 3.84344012e-02 1.34120002e-01
      2.55026996e-01 2.55026996e-01 7.53799006e-02 3.96227986e-02
      2.55026996e-01 2.55026996e-01 1.52248994e-01 2.05551997e-01
      2.27516994e-01 7.95567036e-02 7.91779011e-02 3.50652002e-02
      1.23659998e-01 2.55026996e-01 1.74158007e-01 5.76591007e-02
      1.05383001e-01 1.33660004e-01 2.46223003e-01 2.55026996e-01
      8.61606970e-02 3.15992013e-02 1.79861993e-01 1.81951001e-01
      1.21614002e-01 1.68504998e-01 1.32367998e-01 1.05637997e-01
      1.25448003e-01 3.72224003e-02 1.33146998e-02 9.17821005e-02
      2.65204012e-01 2.27267995e-01 2.77377009e-01 2.77377009e-01
      9.50267985e-02 4.22923006e-02 1.75807998e-02 5.86321997e-03
      4.07791995e-02 7.09270984e-02 2.77377009e-01 2.77377009e-01
      2.63855010e-01 3.47718000e-02 2.57098000e-03 6.70887018e-03
      6.31250022e-03 4.06563990e-02 7.68366009e-02 2.27368996e-01
      2.77377009e-01 2.77377009e-01 7.64831007e-02 5.84409013e-02
      1.49408998e-02 6.06396003e-03 1.16966004e-02 1.26967996e-01
      2.77377009e-01 2.77377009e-01 2.77377009e-01 1.89679004e-02 0.
      5.34394989e-03 4.25580004e-03 1.36016002e-02 1.50859002e-02
      1.19753003e-01 2.98934996e-01 2.96344995e-01 6.99051023e-02
      9.61797033e-03 1.48711996e-02 1.47112005e-03 1.25532004e-03
      4.34395997e-03 1.61992997e-01 3.77692014e-01 3.77692014e-01
      1.60600007e-01 4.30009980e-03 7.71712000e-03 9.29922983e-03
      1.69916991e-02 1.29851997e-02 6.77220970e-02 1.54194996e-01
      2.65495986e-01 1.02807999e-01 1.10916002e-02 2.51781009e-02
      9.79026034e-03 5.83076011e-03 2.93814000e-02 8.39174986e-02
      2.22990006e-01 3.77692014e-01 3.77692014e-01 7.37643018e-02
      4.91130985e-02 4.88389982e-03 3.64470005e-04 5.06460015e-03
      8.01678970e-02 3.01748991e-01 3.01748991e-01 1.80958003e-01
      1.90088991e-02 1.37921004e-02 9.14606974e-02 2.23047007e-02
      1.34896003e-02 4.99232002e-02 1.76290005e-01 3.01748991e-01
      1.87944993e-01 1.03990003e-01 8.73987973e-02 3.86855006e-02
      3.93843977e-03 3.69458012e-02 4.95717004e-02 1.07265003e-01
      3.01748991e-01 3.01748991e-01 1.60413995e-01 1.22180000e-01
      1.80167004e-01 4.02771011e-02 2.23811008e-02 2.56593004e-02
      5.84298000e-02 2.55656987e-01 3.01748991e-01 3.01748991e-01
      2.48866007e-01 2.12725997e-01 7.04469010e-02 7.51508027e-02
      1.34937003e-01 8.14756975e-02 8.08430016e-02 6.38092011e-02
      7.07414970e-02 1.17160998e-01 1.34426996e-01 7.40228966e-02
      1.34221002e-01 2.68341988e-01 2.68341988e-01 1.54569000e-01
      1.14381000e-01 1.46688996e-02 3.83678004e-02 2.68341988e-01
      1.24907002e-01 9.18058977e-02 7.37880021e-02 3.49764004e-02
      6.70929998e-02 2.02188000e-01 2.35483006e-01 2.33717993e-01
      2.68341988e-01 1.44691005e-01 1.77818000e-01 2.32601002e-01
      2.30523005e-01 2.68341988e-01 2.68341988e-01 1.37048006e-01
      1.01299003e-01 1.33616002e-02 2.41506994e-02 4.08000015e-02
      2.73350000e-01 2.73350000e-01 1.85606003e-01 1.02627002e-01
      3.21145989e-02 1.25251003e-02 4.68305014e-02 2.54775006e-02
      2.01964993e-02 1.10326000e-01 2.73350000e-01 1.91343993e-01
      9.15644988e-02 7.45818019e-02 5.67278005e-02 8.89592022e-02
      7.84761980e-02 8.84047970e-02 1.85136005e-01 2.73350000e-01
      2.73350000e-01 2.73350000e-01 2.27822006e-01 7.90838972e-02
      2.73350000e-01 2.73350000e-01 1.39974996e-01 1.70157000e-01
      1.47378996e-01 1.56047001e-01 1.27165005e-01 1.94509000e-01
      1.37002006e-01 1.21257000e-01 4.15623002e-02 6.45898981e-03
      3.08814999e-02 9.77898985e-02 1.80999994e-01 1.04284003e-01
      8.53129998e-02 4.65563983e-02 1.68412000e-01 5.60592003e-02
      1.11554004e-02 5.25038987e-02 1.38096005e-01 2.66144991e-01
      2.10749000e-01 1.43779993e-01 6.51689023e-02 3.13235998e-01
      3.13235998e-01 5.25892004e-02 5.01670986e-02 5.59885018e-02
      7.66730979e-02 4.19562012e-02 8.33590999e-02 1.13325998e-01
      3.13235998e-01 2.95338988e-01 1.29388999e-02 4.07714993e-02
      8.05331022e-02 2.79027998e-01 3.13235998e-01 2.75025994e-01
      2.14063004e-01 6.73001036e-02 3.89038995e-02 4.80903015e-02
      1.42712995e-01 2.04474002e-01 2.51964986e-01 2.32875004e-01
      1.18285999e-01 5.04873991e-02 1.37433000e-02 6.08257987e-02
      7.77451992e-02 2.58127004e-01 2.13363007e-01 9.22793970e-02
      7.37968013e-02 4.80417013e-02 1.09155998e-02 2.10503995e-01
      7.24055991e-02 4.98277992e-02 1.25310004e-01 1.88624993e-01
      2.96371996e-01 2.96371996e-01 2.60037988e-01 1.49584994e-01
      4.10622992e-02 9.80240032e-02 1.35703996e-01 2.38334000e-01
      2.59395003e-01 2.60253012e-01 2.40961000e-01 5.76943010e-02
      4.31827009e-02 2.34492999e-02 1.17978998e-01 1.38283998e-01
      2.74228990e-01 2.74228990e-01 1.76756993e-01 4.29829992e-02
      3.59598994e-02 8.00102018e-03 2.05182005e-02 6.13844991e-02
      2.18816996e-01 2.74228990e-01 2.74228990e-01 1.31376997e-01
      9.74262040e-03 7.44178984e-03 1.24092000e-02 6.91165999e-02
      2.40122005e-01 2.70797014e-01 2.74228990e-01 2.74228990e-01
      6.97930008e-02 6.53783977e-02 5.60717992e-02 4.20408994e-02
      6.37222975e-02 2.74228990e-01 2.74228990e-01 2.74228990e-01
      1.62120000e-01 2.01522000e-02 1.55263999e-02 1.05822003e-02
      4.29765992e-02 2.47868001e-02 5.10840006e-02 5.76207004e-02
      1.14887998e-01 1.77551001e-01 2.69935012e-01 1.30438998e-01
      3.78815010e-02 5.95154017e-02 2.39969995e-02 3.86950001e-02
      9.13048014e-02 7.55451992e-02 2.04242006e-01 3.43466014e-01
      3.43466014e-01 3.43466014e-01 7.12369978e-02 4.93744984e-02
